tree
version=v4
num_class=1
num_tree_per_iteration=1
label_index=0
max_feature_idx=135
objective=lambdarank
feature_names=Column_0 Column_1 Column_2 Column_3 Column_4 Column_5 Column_6 Column_7 Column_8 Column_9 Column_10 Column_11 Column_12 Column_13 Column_14 Column_15 Column_16 Column_17 Column_18 Column_19 Column_20 Column_21 Column_22 Column_23 Column_24 Column_25 Column_26 Column_27 Column_28 Column_29 Column_30 Column_31 Column_32 Column_33 Column_34 Column_35 Column_36 Column_37 Column_38 Column_39 Column_40 Column_41 Column_42 Column_43 Column_44 Column_45 Column_46 Column_47 Column_48 Column_49 Column_50 Column_51 Column_52 Column_53 Column_54 Column_55 Column_56 Column_57 Column_58 Column_59 Column_60 Column_61 Column_62 Column_63 Column_64 Column_65 Column_66 Column_67 Column_68 Column_69 Column_70 Column_71 Column_72 Column_73 Column_74 Column_75 Column_76 Column_77 Column_78 Column_79 Column_80 Column_81 Column_82 Column_83 Column_84 Column_85 Column_86 Column_87 Column_88 Column_89 Column_90 Column_91 Column_92 Column_93 Column_94 Column_95 Column_96 Column_97 Column_98 Column_99 Column_100 Column_101 Column_102 Column_103 Column_104 Column_105 Column_106 Column_107 Column_108 Column_109 Column_110 Column_111 Column_112 Column_113 Column_114 Column_115 Column_116 Column_117 Column_118 Column_119 Column_120 Column_121 Column_122 Column_123 Column_124 Column_125 Column_126 Column_127 Column_128 Column_129 Column_130 Column_131 Column_132 Column_133 Column_134 Column_135
feature_infos=[0:75] [0:7] [0:15] [0:15] [0:75] [0:1] [0:1] [0:1] [0:1] [0:1] [0:11266] [0:3233] [0:5223] [2:119] [2:11277] [-1.9397770000000001:81.729558999999995] [3.725981:513.52506000000005] [1.9933719999999999:497.332786] [2.001239:362.45687400000003] [-1.9448369999999999:81.692890000000006] [0:289275] [0:178] [0:862] [0:19] [0:289275] [0:3857] [0:86] [0:79] [0:13] [0:3857] [0:3857] [0:86] [0:856] [0:13] [0:3857] [0:3857] [0:86] [0:287.33333299999998] [0:13] [0:3857] [0:161696.88888899999] [0:469] [0:161696.88888899999] [0:8] [0:646787.55555599998] [0:41.975309000000003] [0:2] [0:3] [0:1.125] [0:41.239891999999998] [0:1] [0:1] [0:1] [0:0.59999999999999998] [0:0.64285700000000001] [0:1] [0:1] [0:1] [0:0.59999999999999998] [0:0.64285700000000001] [0:1] [0:1] [0:1] [0:0.59999999999999998] [0:0.64285700000000001] [0:0.25] [0:0.25] [0:0.25] [0:0.040000000000000001] [0:0.0625] [-698.34880999999996:315124.32030800002] [0:1324.6620439999999] [0:6927.8545279999998] [0:148.35244599999999] [-704.62294499999996:306941.21288800001] [-464.11810200000002:4201.657604] [0:641.37398900000005] [0:357.381865] [0:73.682722999999996] [-467.37555700000001:4092.549505] [0:8112.1315219999997] [0:641.37398900000005] [0:6857.2939409999999] [0:73.682722999999996] [0:8662.4788680000001] [-267.68928899999997:4201.657604] [0:641.37398900000005] [0:2309.2848429999999] [0:73.682722999999996] [-272.27712300000002:4092.549505] [0:9092913.3625019994] [0:29229.340394999999] [0:10343023.179426] [0:1094.3037340000001] [0:16475487.344745001] [0:1] [0:1] [0:1] [0:1] [0:1] [0:1] [0:1] [0:1] [0:1] [0:1] [-11.441554:284.38819899999999] [0:63.935395] [0:84.585654000000005] [0:60.993035999999996] [-11.440550999999999:277.00980800000002] [-148.45702700000001:0] [-141.71242100000001:0] [-146.69159500000001:0] [-162.903042:0] [-148.757969:0] [-157.05346900000001:0] [-138.20396099999999:0] [-143.962503:0] [-161.33606900000001:0] [-157.27687499999999:0] [-162.142639:0] [-169.91323399999999:0] [-174.79303200000001:0.70559499999999997] [-190.99748399999999:0] [-162.479229:0] [1:22] [5:1032] [-2083777989:226244459] [0:164] [100:65534] [1:65535] [1:254] [1:254] [0:13150188] [0:2789632] [0:900000001]
tree_sizes=7095 7084 7074 7085 7071 7064 7076 7053 7071 7093 7093 7100 7079 7078 7086 7098 7080 7066 7087 7094 7072 7105 7097 7088 7117 7072 7109 7093 7106 7058 7091 7073 7073 7088 7122 7116 7094 7106 7083 7098 7065 7072 7130 7092 7091 7113 7108 7119 7088 7096 7107 7114 7095 7101 7088 7096 7105 7109 7066 7087 7112 7110 7094 7112 7108 7079 7093 7112 7115 7107 7083 7092 7075 7062 7102 7114 7102 7068 7146 7119 7098 7104 7103 7111 7072 7125 7068 7118 7085 7077 7085 7070 7099 7103 7066 7102 7097 7056 7088 7088 7060 7078 7072 7058 7116 7083 7085 7074 7108 7044 7070 7081 7094 7104 7046 7062 7071

Tree=0
num_leaves=63
num_cat=0
split_feature=54 133 133 7 14 107 114 108 19 64 107 54 108 100 64 128 129 24 134 129 128 71 64 2 131 129 10 106 126 14 103 13 107 129 119 17 128 107 108 126 107 62 132 87 122 134 108 128 130 128 129 0 129 112 129 128 126 86 130 24 129 64
split_gain=1380.49 480.841 396.518 317.26 315.465 205.121 191.857 100.928 91.9561 82.1093 76.4805 60.0543 55.3109 58.1864 52.9339 44.3451 37.846 43.5818 28.9771 28.0101 24.7622 24.7212 23.5723 22.6872 21.608 20.992 20.9425 20.2902 24.066 20.1724 19.6446 19.5724 19.2001 16.6654 14.6328 14.4415 14.2186 14.106 13.7365 13.4298 13.1734 13.0637 13.3024 13.9955 12.161 12.0883 12.0562 11.9473 16.1366 11.4139 11.3632 11.2172 11.1504 11.0021 10.7983 10.7321 10.3214 10.2543 10.1642 10.1272 10.0927 9.5629
threshold=0.0060990000000000011 1.0000000180025095e-35 1.0000000180025095e-35 0.35416650000000005 32.500000000000007 15.541904500000001 -23.187894499999995 10.705246000000001 14.812850000000003 0.0039035000000000003 16.045812000000002 0.021055000000000001 11.675214000000002 0.42582750000000008 0.0031625000000000004 10.500000000000002 19587.500000000004 14.500000000000002 35.500000000000007 64180.500000000007 1.0000000180025095e-35 16.879625000000001 0.0070445000000000013 1.5000000000000002 12.500000000000002 27378.000000000004 1149.5000000000002 13.643543000000003 33.500000000000007 264.50000000000006 0.94328900000000016 4.5000000000000009 22.443148500000003 25742.500000000004 -14.598660999999998 11.428078500000002 1.0000000180025095e-35 22.970173500000005 19.233762000000002 31.500000000000004 20.268603500000001 0.04016150000000001 56.500000000000007 3.9826295000000003 -20.500437499999993 8.5000000000000018 17.456496500000004 8.5000000000000018 63756.000000000007 1.5000000000000002 213.50000000000003 5.5000000000000009 63229.500000000007 -6.2744319999999991 23757.000000000004 10.500000000000002 156.50000000000003 2.1647335000000001 43328.500000000007 5.5000000000000009 30645.000000000004 0.0014885000000000002
decision_type=2 2 2 2 2 2 2 2 2 2 2 2 2 2 2 2 2 2 2 2 2 2 2 2 2 2 2 2 2 2 2 2 2 2 2 2 2 2 2 2 2 2 2 2 2 2 2 2 2 2 2 2 2 2 2 2 2 2 2 2 2 2
left_child=2 5 3 4 24 7 9 11 10 29 22 21 13 20 55 19 17 31 -3 38 26 23 -5 59 -1 50 56 28 36 -6 41 -7 46 44 -22 -36 -13 47 58 -17 60 -24 43 53 -10 -4 -18 -19 -49 -16 -26 57 -25 -43 -45 -15 -8 -11 -9 -2 -12 -31
right_child=1 18 45 8 6 16 12 15 33 51 40 27 -14 14 49 39 32 37 -20 -21 34 -23 30 52 25 -27 -28 -29 -30 61 -32 -33 -34 -35 35 -37 -38 -39 -40 -41 -42 42 -44 54 -46 -47 -48 48 -50 -51 -52 -53 -54 -55 -56 -57 -58 -59 -60 -61 -62 -63
leaf_value=-0.018068971739898989 -0.026073164370779209 0.052989282602595333 0.041447619671080821 -0.034915726935395346 -0.043447936808198299 0.032783089124153224 -0.025907666940968185 0.0025136502192748362 -0.0088406173360958112 -0.04559808502722304 -0.0089738995034254598 0.0059504242933967402 0.0030534311440095917 -0.064689495199958841 -0.038140793549575586 0.066425861640922498 0.025151688390230992 0.016994232037936919 0.077488767058470229 0.05482472976135877 -0.032480893435365747 0.023712356386814556 -0.040279587641531701 -0.0031531735110975605 -0.032688959387045448 0.033044948664639869 -0.052087858724790562 0.034853247565816668 -0.0018755409220248473 -0.084346054130141998 0.024892302236409768 0.0027243080605231806 0.046402763456453368 0.024296126041232248 -0.037835558046837005 -0.006893231588100116 0.021627514128936504 0.030835302961969808 0.030816073476401386 0.033563623565797777 0.013846577662498369 -0.023442853768572209 -0.033257264668865125 -0.013733976145075228 0.0094790086141998894 0.071428451126677978 0.053177704224063649 0.02400858850090333 0.064644823698871881 -0.025870675360157171 0.010987882045144753 -0.012735749697076304 0.031840380863149671 0.081163484678938497 0.0038660314619578095 -0.03193833284664039 0.067633784565551594 -0.0080102326705211255 0.015319919710292645 -0.012480121471114099 0.014986257891708425 -0.067499850561870453
leaf_weight=46.318727583480268 178.62355963185473 301.05233763761862 50.547752596579812 219.24326951886542 48.102318565331188 61.992733365652384 354.66696257428248 321.10233155865353 117.63357611659012 236.67911844281298 188.65386342467536 368.25293437655637 126.51950699820554 199.16855402862029 471.84269727855099 44.746703067765338 422.1002756941125 632.38187625167848 201.45815838567432 38.827440307373763 90.095574666402172 55.06691847377806 60.244497702935405 387.8602933920647 16.531927257357893 137.56646969348367 90.21660142275141 59.729195242376591 624.64335949365341 221.43913763428191 27.759065244856174 428.35795206406692 194.78099604385716 148.44227765570758 42.172919551754603 356.26377352231611 238.17867610232133 480.36679487302172 79.111460841151711 101.86400009649151 201.72041038576617 253.3050862462951 97.299735625856556 235.80253666129283 394.02379640805975 100.40659158751441 42.21049461972143 109.06782389531872 31.481745610130019 316.76961532179484 150.06891692889258 35.522435458435211 24.18360690188274 2.5388124651508397 138.24353470278584 28.606032419502299 2.973683497933961 19.65123705197766 299.4195516373984 588.36178465110061 57.300585175906235 135.96674509991453
leaf_count=3130 12803 13560 2320 15855 3325 3167 24284 19667 8235 17749 12228 22641 7828 16117 33814 1605 23473 36413 6206 1586 6416 2848 4293 24454 1079 6575 6908 3129 40380 18607 1527 27266 9150 7833 3214 22304 13222 26317 3996 5738 10906 16903 6832 15280 23254 2974 1891 6244 1370 21819 8563 2483 1277 71 8079 2080 94 1197 17919 38967 3033 10914
internal_value=-9.4067e-12 0.0158874 -0.0185105 -0.0207994 -0.0309538 0.0118308 -0.036596 0.0039465 -0.00597621 -0.0592909 -0.0128896 -0.00114643 -0.0289845 -0.0310603 -0.0393445 0.0184755 0.0230202 0.0191622 0.0628112 0.0134886 -0.0220683 -0.00903278 -0.0203616 -0.0105621 0.0137451 0.0185898 -0.0305603 0.00639345 0.00501264 -0.0738461 -0.0164473 0.0065245 0.0332269 0.0095464 -0.0142833 -0.0101684 0.0121077 0.0241066 0.0111946 0.0435934 0.00437572 -0.0179047 -0.016051 -0.0133931 0.0052672 0.0613892 0.0276995 0.0199248 0.0331107 -0.0332121 0.0066538 -0.0390674 -0.00109934 -0.0224048 -0.0072292 -0.0605763 -0.0251299 -0.0427165 0.00869304 -0.0156458 -0.00339185 -0.0779373
internal_weight=11735.5 6315.22 5420.31 5269.35 3127.14 5812.71 2776.66 3409.97 2142.21 697.361 1482.11 2524.9 2079.3 1952.78 1016.39 885.071 2402.74 1743.65 502.51 738.461 936.39 1234.1 1034.44 1179.03 350.486 304.167 447.857 1290.8 1231.07 405.508 815.193 490.351 659.092 660.1 488.532 398.437 606.432 1253.3 699.633 146.611 447.675 787.434 727.19 629.89 511.657 150.954 464.311 772.931 140.55 788.612 166.601 291.853 412.044 255.844 374.046 227.775 357.641 256.33 620.522 766.985 245.954 357.406
internal_count=723412 365289 358123 352829 218500 345523 199153 210232 134329 54275 95007 159721 144878 137050 73830 50511 135291 100777 19766 43168 63220 80349 68840 77501 19347 16217 31286 79372 76243 32846 52985 30433 34514 39322 31934 25518 35863 70344 41582 7343 26167 51458 47165 40333 31489 5294 25364 44027 7614 55633 9642 21429 25731 16974 23359 18197 24378 18946 37586 51770 15261 29521
is_linear=0
shrinkage=0.05


Tree=1
num_leaves=63
num_cat=0
split_feature=133 54 128 107 100 107 48 129 133 132 129 134 87 13 24 64 14 87 129 106 126 107 114 108 74 108 16 126 54 132 107 73 127 117 114 126 107 132 107 135 14 14 84 108 128 108 129 132 103 17 45 129 79 106 125 69 2 64 133 127 7 49
split_gain=6308.4 1454.71 578.831 500.069 455.418 481.777 327.462 316.79 292.663 231.557 183.574 145.79 144.896 144.871 170.637 122.052 119.962 145.621 119.144 108.785 114.379 88.568 82.9843 75.4272 69.4211 66.7065 62.9818 62.6397 61.9384 61.6858 61.4148 59.7788 58.4923 51.4985 50.2419 49.3444 47.2432 42.3714 42.0143 41.2114 37.0541 36.3351 35.8133 34.154 35.5937 33.4262 33.3278 33.024 32.3331 32.2539 31.4571 28.1738 27.5932 25.8061 25.4746 25.1565 24.525 24.4256 24.1501 23.6339 23.4634 23.4221
threshold=1.0000000180025095e-35 0.0060990000000000011 8.5000000000000018 15.803053000000002 0.35010800000000003 12.337423500000002 0.16163250000000004 63963.500000000007 80.500000000000014 1.5000000000000002 25742.500000000004 29.500000000000004 2.3066005000000005 4.5000000000000009 14.500000000000002 0.0051195000000000017 38.500000000000007 2.0674060000000005 20460.500000000004 13.776942000000002 33.500000000000007 22.970173500000005 -22.548092999999998 13.335754500000002 188.77385750000002 11.823311000000002 17.834508500000002 28.500000000000004 0.018941000000000003 2.5000000000000004 20.268603500000001 15.398277000000002 1.0000000180025095e-35 -6.3811639999999992 -4.1178084999999989 22.500000000000004 15.884500000000001 13.500000000000002 24.353032500000001 6.6083333333333352 29.500000000000004 26.500000000000004 113.54581800000001 19.233762000000002 1.0000000180025095e-35 16.469070000000006 26870.000000000004 2.5000000000000004 0.89915450000000019 11.170741500000002 0.015835500000000006 26870.000000000004 11.510143500000002 12.561038000000002 1.5000000000000002 1.5500000000000004e-05 2.5000000000000004 0.026386500000000004 8.5000000000000018 12.500000000000002 0.64583350000000006 0.033926500000000005
decision_type=2 2 2 2 2 2 2 2 2 2 2 2 2 2 2 2 2 2 2 2 2 2 2 2 2 2 2 2 2 2 2 2 2 2 2 2 2 2 2 2 2 2 2 2 2 2 2 2 2 2 2 2 2 2 2 2 2 2 2 2 2 2
left_child=1 4 3 7 10 15 24 19 26 42 12 -10 22 32 18 48 49 33 -15 20 28 46 41 57 36 -17 58 -11 45 -26 50 61 37 -18 40 -13 53 38 -5 -28 -24 -1 -8 44 -30 -3 -16 -29 -6 -12 -7 -52 -42 -4 -38 -14 -49 -9 -2 -23 -19 -22
right_child=8 2 6 13 5 30 9 23 11 27 16 35 55 14 21 25 17 60 -20 -21 31 59 34 -25 29 -27 39 47 43 -31 -32 -33 -34 -35 -36 -37 54 -39 -40 -41 52 -43 -44 -45 -46 -47 -48 56 -50 -51 51 -53 -54 -55 -56 -57 -58 -59 -60 -61 -62 -63
leaf_value=-0.021332177574347633 0.024014504350500992 -0.03359735442780401 -0.016017448142732812 0.017702991262579418 -0.070099397235126371 -0.045671929306298466 0.046696175478957623 -0.0099726054197237009 0.041067672445397156 0.044994282707780719 -0.0024983439816429983 0.077722615372936232 -0.034649196181775317 -0.033424965046337685 -0.0063178191764276144 -0.048215996769943335 -0.044775391377657049 0.001579948369983324 0.0015504320191657569 0.004548191703137818 -0.045441361318383444 0.0093306470560811598 -0.018705887397960707 0.050295993053831922 0.044557889671827521 -0.018247502324327772 0.03441687923050956 0.036664699838978763 -0.018922944168254491 0.004219031761062678 -0.0068248980833486546 -0.01484702692802484 0.047812508051632202 -0.010133224047210624 -0.01296259836013736 0.061003209722043067 0.061964646528003015 0.001843223239887544 0.057244658572878838 0.053184481258001286 -0.044915650094237945 -0.074248489130258985 0.075456043518345228 0.023702165621424073 -0.0016607780225369559 0.010433817793312525 0.0093285239264203484 0.00035052671896472558 -0.024447225720089526 0.021550283845154491 -0.027910787499838986 -0.010046002060917887 0.0043637419968963979 0.010078488548102666 0.0066275431488957417 -0.0020797066976335431 0.024011718965415482 0.015978394784092277 0.038237783701156679 0.02183210738369569 0.033109441300035326 -0.032936110325172983
leaf_weight=40.531421811319888 595.36151944682933 512.44705784914549 571.91666236380115 275.9923839677358 793.72388416749891 170.27375764993485 169.1321746413596 138.03839493985288 535.10027855844237 209.02580003114417 201.1200349740684 1060.1737182065845 66.063855372020043 552.70970372669399 1279.1931848071981 1713.3717506134417 316.23215109965531 393.75561475730501 435.22996667353436 336.57603410887532 531.50902752415277 981.30547927320004 229.00242810416967 134.74691298324615 161.95216363598593 208.2550231735222 436.75727229984477 122.96394549775869 739.70346480840817 228.46575782215223 663.06638466496952 381.75249548652209 184.01296435808763 162.36301398254 342.61554254591465 755.98366262018681 21.914782478939742 295.00942258350551 88.789993736194447 885.66492215823382 558.70191104983678 162.5088204680942 300.68741375068203 71.003970979247242 500.79769619146828 47.061285715317354 463.72697452898137 348.42865596269257 40.777647520415485 454.51383572758641 728.09873882320244 316.68400102749001 29.92769110831432 113.54492575419135 407.99891661503352 578.07711344142444 159.71628359542228 264.24891882319935 598.41386492643505 614.978479888523 69.407083253609017 1267.0707054066006
leaf_count=1515 4369 24785 21051 4825 58571 8680 1503 4003 4203 2241 2869 2542 1897 24249 33702 93663 19012 6005 7357 6455 26829 15377 8456 773 2318 7139 3083 1146 29604 5260 18308 11747 2621 5590 11243 2716 207 5606 781 4363 30424 12809 1667 1054 12363 1005 7948 6290 2106 5465 30997 9610 864 1857 8712 16988 2398 5822 3784 8964 618 55003
internal_value=-7.60663e-12 -0.0118108 -0.00133603 -0.0069269 -0.0282261 -0.0385939 0.0187101 -0.0183293 0.0513219 0.0369914 -0.0148975 0.064005 -0.0249626 0.00393307 0.000237376 -0.051902 -0.00224873 -0.0136814 -0.0180168 -0.0227657 -0.0250348 0.00563807 -0.0341963 0.0179186 0.00280639 -0.0449682 0.0394702 0.0212711 -0.0159657 0.0209523 -0.0190644 -0.0328174 0.0228851 -0.0330231 -0.0290358 0.0707631 -0.00354527 0.0159329 0.0273276 0.0469861 -0.0357711 -0.0636852 0.0651027 -0.0100237 -0.0119541 -0.0298938 -0.0021549 0.0134139 -0.0678686 0.0141732 -0.0257436 -0.0224958 -0.0424101 -0.0116947 0.00944834 -0.00542007 0.00778753 0.00707373 0.0311443 0.0141469 0.00630479 -0.0366316
internal_weight=26018.2 21150.7 12911.7 10095.9 8239.07 4634.25 2815.75 4924.96 4867.46 1309.95 3604.82 2351.26 2007.43 5170.95 4327.14 2756.13 1597.39 941.758 987.94 4387.92 4051.35 3339.2 1363.29 537.034 1505.79 1921.63 2516.2 840.135 1871.01 390.418 1878.12 2180.33 843.805 478.595 1160.25 1816.16 1115.38 659.792 364.782 1322.42 817.632 203.04 469.82 1311.51 1240.5 559.508 1742.92 631.109 834.502 655.634 1215.06 1044.78 588.63 685.462 429.914 644.141 508.145 402.287 1193.78 1596.28 463.163 1798.58
internal_count=723412 698352 345523 290873 352829 229074 54650 179443 25060 15245 123755 9461 84196 111430 97597 161479 39559 31225 31606 168845 162390 65991 65311 10598 39405 100802 15599 12075 68811 7578 67595 93579 13833 24602 50987 5258 31827 11212 5606 7446 39744 14324 3170 43021 41967 25790 41650 9834 60677 8334 49287 40607 31288 22908 8919 18885 8688 9825 8153 24341 6623 81832
is_linear=0
shrinkage=0.05


Tree=2
num_leaves=63
num_cat=0
split_feature=133 7 128 14 7 107 130 123 134 64 126 17 129 47 13 133 24 6 54 128 123 128 108 29 24 107 107 118 80 134 126 53 128 129 134 71 73 129 16 107 126 132 93 127 129 108 108 63 71 107 74 129 126 106 108 73 12 79 135 114 48 100
split_gain=4911.19 1328.83 430.895 385.502 412.412 323.097 295.594 286.516 273.642 180.305 169.699 133.923 132.929 126.606 123.84 110.909 96.4192 94.1646 90.3542 75.1952 71.5023 68.5079 67.3316 67.2962 65.7167 65.0657 63.7332 60.9244 52.5085 52.4466 52.3991 51.192 48.5583 47.8078 43.0992 42.5667 42.245 37.4601 36.0917 35.0108 34.9916 33.3417 32.3594 31.6706 31.3727 31.2392 30.5786 28.8632 28.7602 28.7224 28.6519 27.3315 26.8622 26.3574 25.4941 24.8515 24.4631 24.4268 24.2447 23.2482 22.6934 22.6927
threshold=1.0000000180025095e-35 0.69047650000000005 15.500000000000002 32.500000000000007 0.35416650000000005 21.618076500000004 64121.500000000007 -2.0512704999999998 10.500000000000002 0.0064575000000000006 30.500000000000004 19.888799500000001 17508.500000000004 0.19836050000000002 4.5000000000000009 70.500000000000014 14.500000000000002 0.46428550000000007 0.0060990000000000011 1.0000000180025095e-35 -17.720772499999999 1.5000000000000002 12.097562000000002 3.5000000000000004 16.500000000000004 15.541904500000001 14.605281500000002 -17.895999999999997 56.942287000000007 538.50000000000011 28.500000000000004 0.15587050000000005 11.500000000000002 20460.500000000004 24.500000000000004 8.6781310000000023 8.9589860000000012 64180.500000000007 15.305717500000002 14.993954 31.500000000000004 12.500000000000002 0.15085650000000003 14.500000000000002 21380.500000000004 17.682938500000002 16.469070000000006 0.12310600000000001 14.667924500000003 12.128897000000002 182.55775500000001 63495.500000000007 32.500000000000007 13.494742 12.449913500000003 21.912625500000001 6.5000000000000009 1.0152280000000002 11.403571428571452 -14.501138499999998 0.19139200000000003 0.19890800000000003
decision_type=2 2 2 2 2 2 2 2 2 2 2 2 2 2 2 2 2 2 2 2 2 2 2 2 2 2 2 2 2 2 2 2 2 2 2 2 2 2 2 2 2 2 2 2 2 2 2 2 2 2 2 2 2 2 2 2 2 2 2 2 2 2
left_child=1 3 5 12 7 10 30 9 58 27 19 18 -1 50 41 38 51 36 49 26 23 46 -21 39 33 53 37 -5 -15 -17 -4 -23 48 -16 35 -22 -11 -3 -10 57 45 -7 -32 -28 55 -14 59 -34 60 54 -8 -12 -41 -18 -6 -26 -30 -13 -2 -9 -20 -29
right_child=8 2 6 4 11 14 13 21 15 17 16 20 40 28 24 29 25 -19 32 22 34 31 -24 -25 44 -27 43 61 56 -31 42 -33 47 -35 -36 -37 -38 -39 -40 52 -42 -43 -44 -45 -46 -47 -48 -49 -50 -51 -52 -53 -54 -55 -56 -57 -58 -59 -60 -61 -62 -63
leaf_value=-0.02034269411123895 0.026202602379155213 -0.024132637343240337 0.032725391204340114 -0.066227107096030594 -0.049544240032115855 0.049171624503427172 -0.0061666751678349334 -0.079348968051381225 0.026503369958427697 -0.042102157594694101 -0.029939381863307604 -0.023731013606417505 0.017876272359729741 0.023960608564712764 -0.020559980177647753 0.057190034759668065 -0.023301564905632677 0.0022597215058255851 -0.030993983152714122 0.0045158991580943834 -0.0073573175604591716 -0.0078783952768324769 0.03433129898039379 0.0040294388651933369 0.0046615000973337555 -0.0029798458693415329 -0.0016039377094055072 -0.040053121015412627 0.075046471605862308 0.073982886771358281 -0.012837992837007131 0.032381470486491259 -0.0011892486650817314 0.012693378551829827 0.029534295558477849 0.021510744813752519 -0.023738542035305673 0.010899560404628004 0.049007858812157086 0.0020614980102476479 -0.0008180261694326757 0.019410182121107983 0.011530771669451051 0.025463891869045671 0.02430083067907253 0.063802128737546523 0.0087784631527918957 0.053441331975206688 0.013067343280722754 -0.026891485729804234 0.032691301008324604 0.0030229484516712166 -0.021362446036687084 0.00082404071639341828 -0.010378943888629005 0.019593485180197819 0.051799600191533901 -0.048517700246784687 0.039239422021479266 -0.028561893819316377 -0.0076988270421213117 -0.060726905638306405
leaf_weight=429.56338952411897 956.02836607675999 485.12697855080478 126.72305388725363 876.2229380136705 485.82012348267017 246.33754986268468 94.335573497693986 24.231584696099162 244.52437701448798 1382.454113683023 1046.9177246576874 228.72721774387173 511.4369276529178 84.129733020090498 309.32737455354072 1117.8101035002619 828.62669952481519 158.58265453786589 426.92053057567682 772.92752244020812 941.97629918460734 314.51649364584591 250.79693753353786 296.57190087391064 1086.1548892520368 1351.2047542545479 480.9344906473998 461.22380640264601 315.43769165710546 796.08165221661329 332.67787280352786 105.42478399630636 135.63729073631112 166.13782099005766 108.98101345356554 147.72023099847138 404.91315848904196 90.552196736913174 656.43574585160241 158.84984929859638 268.18670905660838 152.28163590258919 230.70197805122007 139.38647900847718 399.70136811025441 39.917554527055472 52.660379092325456 29.422159199835733 53.494860226754099 302.4102556144353 95.425748452544212 66.907003848347813 533.31579282018356 131.12512603215873 45.436640896834433 374.8037154416088 176.48382222699001 175.78646675357595 568.80743420310318 321.49630245449953 138.45098647556733 186.37074574589496
leaf_count=17570 8706 23444 1831 68663 30472 2018 3050 2076 1981 79800 50494 8945 8131 1152 12642 4708 38036 5252 18604 19982 23332 8728 4311 7671 22669 36506 12160 28906 1585 1971 11079 1932 3290 2924 1607 2720 16438 1853 3401 3998 6317 2540 4812 2658 5605 341 1238 248 1296 12852 1078 1885 16257 2975 1631 6602 1439 9392 4293 15751 4202 15362
internal_value=9.85229e-11 -0.0106652 0.00230109 -0.0237492 -0.0275617 -0.00206136 0.0274084 -0.0384753 0.0481245 -0.044752 -0.00889542 -0.0164443 0.00218681 0.0487951 0.0120441 0.0573655 -0.015875 -0.0346658 -0.0277333 0.00187328 -0.00939891 -0.0118621 0.0118202 -0.0171018 0.00764898 -0.0100507 -0.00664087 -0.0576322 0.0604635 0.064175 0.00367527 0.0022287 -0.0155471 -0.00894054 -0.000445632 -0.00344394 -0.037942 -0.0186222 0.0429 -0.0228163 0.0139957 0.0378021 -0.00285907 0.00447822 0.0118882 0.0212013 -0.0267152 0.00854876 -0.0219738 -0.0391924 0.0133739 -0.0279593 -0.0159867 -0.0200054 -0.0461946 0.00849225 0.0667063 -0.0345024 0.0310657 -0.0321215 -0.0252893 -0.0460028
internal_weight=23921.6 19581.9 9835.17 9746.72 8497.62 8379.25 1455.92 4288.1 4339.69 3469.77 5644.51 4209.52 1249.1 765.813 2734.74 2814.85 3424.78 1945.95 1617.59 2219.72 2591.93 818.33 1023.72 1393.25 2336.13 2310.96 1196 1523.82 576.051 1913.89 690.103 419.941 783.926 475.465 1198.68 1089.7 1787.37 575.679 900.96 1096.68 819.541 398.619 563.38 620.321 1860.66 551.354 398.388 165.059 618.866 833.667 189.761 1113.82 692.166 959.752 531.257 1460.96 491.922 404.514 1524.84 345.728 565.372 647.595
internal_count=723412 698352 275330 423022 390663 249304 26026 244146 25060 214421 194304 146517 32359 8304 55000 12061 129896 101490 72595 64408 73922 29725 24293 46263 50442 77517 40115 112931 4176 6679 17722 10660 27640 15566 27659 26052 96238 25297 5382 38592 14789 4558 15891 14818 34876 8472 19065 3538 24102 44955 4128 52379 20255 41011 32103 29271 3024 18337 12999 17827 22806 44268
is_linear=0
shrinkage=0.05


Tree=3
num_leaves=63
num_cat=0
split_feature=133 7 128 14 7 107 123 130 134 126 6 129 18 47 13 133 24 108 64 128 123 108 108 29 65 107 107 117 85 134 126 134 54 48 71 129 129 110 86 73 129 73 127 128 93 128 128 106 132 60 12 129 16 107 18 126 84 58 49 107 126 105
split_gain=4086.88 1193.1 382.412 358.371 384.37 311.333 292.14 254.926 242.437 207.132 143.495 126.557 121.948 106.037 104.437 95.4888 95.2321 91.1787 91.1043 72.8269 70.7685 70.2427 63.2279 61.7258 58.7971 57.0716 56.699 54.7421 52.5764 50.556 46.8908 45.2722 44.3028 43.2962 43.0221 42.8933 40.2554 40.1094 34.9492 34.209 33.1657 34.9831 32.6032 32.4431 32.336 31.0827 28.9266 28.073 27.9986 26.2704 26.0256 25.6427 25.6378 24.1904 23.8481 23.6619 23.1472 22.6973 22.6145 22.3977 22.1586 20.6902
threshold=1.0000000180025095e-35 0.69047650000000005 15.500000000000002 32.500000000000007 0.35416650000000005 21.618076500000004 -1.9241394999999997 64121.500000000007 10.500000000000002 30.500000000000004 0.46428550000000007 17508.500000000004 20.475048000000005 0.17673100000000003 4.5000000000000009 70.500000000000014 14.500000000000002 11.928655500000001 0.0064575000000000006 1.0000000180025095e-35 -17.354720999999998 10.7639215 12.097562000000002 2.5000000000000004 1.5000000000000002e-06 14.605281500000002 15.632202000000001 -16.078496999999995 55.201055000000004 25.500000000000004 27.500000000000004 255.50000000000003 0.0060990000000000011 0.23904750000000002 8.6781310000000023 58324.500000000007 64374.500000000007 -14.409382999999998 8.0468175000000013 9.002066000000001 39001.500000000007 22.180507000000002 14.500000000000002 1.0000000180025095e-35 0.15085650000000003 11.500000000000002 1.5000000000000002 13.357424000000002 10.500000000000002 0.0053005000000000005 3.5000000000000004 63963.500000000007 16.314847000000004 13.873840000000003 14.184354000000001 26.500000000000004 182.16793950000002 0.23669450000000003 0.038467500000000009 13.375256500000001 31.500000000000004 11.727145000000002
decision_type=2 2 2 2 2 2 2 2 2 2 2 2 2 2 2 2 2 2 2 2 2 2 2 2 2 2 2 2 2 2 2 2 2 2 2 2 2 2 2 2 2 2 2 2 2 2 2 2 2 2 2 2 2 2 2 2 2 2 2 2 2 2
left_child=1 3 5 11 6 9 10 30 -2 19 18 -1 17 56 48 52 51 32 27 25 23 37 58 35 60 36 47 -5 -15 34 -4 -17 -6 50 -22 49 -3 -8 -34 -20 41 -26 -27 -23 -32 -19 -39 -18 -7 -14 54 -11 -10 -51 -13 -56 -9 -24 -21 -25 -16 -55
right_child=8 2 7 4 12 14 21 13 15 16 -12 33 20 28 24 31 26 45 39 22 29 43 57 59 40 42 -28 -29 -30 -31 44 -33 38 -35 -36 -37 -38 46 -40 -41 -42 -43 -44 -45 -46 -47 -48 -49 -50 53 -52 -53 -54 61 55 -57 -58 -59 -60 -61 -62 -63
leaf_value=-0.021442362103990992 0.028744990097824271 -0.024505659134222823 0.03034150100336255 -0.064345818847107106 -0.044505466360292158 0.045020192194768126 -0.078179977594610484 -0.006285543491366551 0.028139936475890304 -0.032513619457744253 -0.001589430748752803 0.0022963507669189944 -0.051790133391900944 0.02668729714455273 0.012634982764362746 0.052171671395937383 -0.024823892039307141 -0.012511491542137588 -0.042923169453617911 -0.008100872769378516 -0.0095205641289963436 -0.01244472789794363 0.021935739361248461 -0.022920891350280234 0.0048665203274482899 -0.002702335447412042 -0.0044840895052841749 -0.043976004473060021 0.062799317571946747 0.02517041563064536 -0.014130817572371487 0.068103829932577464 -0.028469743474783378 0.042166128850436517 0.016511352312629624 0.011600013030219646 0.012994570990150818 -0.031157623002342424 0.015026178726078462 -0.025736754519112583 0.029624021329647456 0.021635972238533467 0.023564270662643161 0.029494614422486305 0.010345939109236858 0.026340803803337809 -0.0071676334774372439 0.00044730390329555855 0.019475939689393977 -0.037337987548971878 -0.01958446531432689 0.0015987479316942116 0.046704223125772527 0.038239034885214546 0.032809863007681864 0.0060559544534608293 0.029567278974988339 0.051075094885402454 0.010182322384573592 0.0035788415076121144 -0.013016579277199819 -0.020153616775365913
leaf_weight=389.25931105751079 1397.7350691026077 433.56260503747035 130.82300754357129 843.76027345273178 557.58963118167594 252.47681927867234 27.342057417961769 90.279952235519886 277.59027300216258 894.06301827332936 184.92678114492446 336.28705491987057 96.041827565641142 127.39646067330614 106.93235618411563 806.69213806465268 747.13264340755995 181.40081411402207 1243.0244273861172 247.92027910496108 853.89551075198688 70.228703947272152 214.34252643585205 101.48339026048779 1198.8340406439966 444.70149658084847 1237.9940440100618 541.50290691386908 482.65103477891535 164.00227670744061 296.65508553897962 996.9047627300024 415.59217036748305 110.39712293329649 194.95178811438382 77.892153742024675 85.711967188166454 200.1993781037163 51.956435625907034 377.46532116655726 227.01738935243338 419.94052497250959 160.87729428824969 134.28398761735298 247.51492802426219 71.875512708444148 337.4574495034758 128.84696359862573 186.52327095111832 244.55482279346325 73.724776049377397 58.708440749440342 563.53140996955335 15.590588338673113 189.31856772559695 146.67273105657659 89.795358508359641 97.101776387542486 532.18829746008851 372.1098365415819 395.82910464762244 562.47179581969976
leaf_count=17570 12999 23610 1570 72796 35607 1816 2497 3032 2441 50779 6575 6938 4690 1606 2707 3969 38507 6470 80282 7993 24265 2659 3327 4373 26661 12160 35887 39608 2617 1598 11307 2710 19526 1482 3074 2213 1687 12708 1037 16930 2991 6177 2658 2381 4845 1264 7710 3123 2742 12734 1543 1600 2941 250 1860 2966 1049 984 11989 9545 11906 19871
internal_value=-5.36285e-12 -0.00985335 0.0025287 -0.0227332 -0.0266534 -0.00173746 -0.0376689 0.0260292 0.0455882 -0.00887078 -0.0443381 0.00219684 -0.0156413 0.0453063 0.0117821 0.0544898 -0.0172873 -0.0283501 -0.0469682 0.00277479 -0.00958569 -0.010016 0.0119754 -0.0169614 0.00759782 -0.00615345 -0.0113721 -0.0563832 0.055258 -0.000645293 0.00346398 0.0609779 -0.0349874 0.0129416 -0.00468195 -0.0240242 -0.0183158 -0.0191047 -0.0236363 -0.0389199 0.0117267 0.00921683 0.00427562 0.0150928 -0.0029976 -0.00148587 -0.0161004 -0.0211068 0.0341669 -0.0270447 0.00861676 -0.0304117 0.0405776 -0.0241557 0.0117094 0.0211308 0.0115926 0.0310208 0.00437188 -0.00209962 -0.00756075 -0.0185787
internal_weight=22745.5 18703.1 9535.82 9167.26 7921.6 8070.7 3960.19 1465.12 4042.45 5283.15 3190.68 1245.66 3961.41 790.123 2787.55 2644.72 3066.75 1278.41 3005.75 2216.41 2682.99 769.512 1091.55 1470.14 2348.55 1124.85 2113.97 1385.26 610.047 1212.85 674.993 1803.6 1025.14 856.4 1048.85 996.551 519.275 564.999 467.549 1620.49 1845.79 1618.77 605.579 204.513 544.17 253.276 537.657 875.98 439 918.659 746.003 952.771 841.122 822.617 672.278 335.991 180.075 311.444 780.109 473.593 502.761 578.062
internal_count=723412 698352 275330 423022 390663 249304 244146 26026 25060 194304 216191 32359 146517 8304 55000 12061 129896 63904 209616 64408 82613 27955 24293 53676 50442 40115 77517 112404 4223 28937 17722 6679 56170 14789 27339 39758 25297 22915 20563 97212 35829 32838 14818 5040 16152 7734 20418 41630 4558 37545 13307 52379 5382 32855 11764 4826 4081 4311 19982 13918 14613 20121
is_linear=0
shrinkage=0.05


Tree=4
num_leaves=63
num_cat=0
split_feature=133 7 14 7 128 123 107 134 130 126 6 129 18 133 13 47 24 108 64 128 108 134 65 48 127 81 117 126 107 12 51 126 128 109 126 129 73 10 131 93 128 73 128 129 107 106 74 126 54 129 119 79 127 13 29 108 108 29 107 84 129 123
split_gain=3403.96 1030.65 323.344 328.424 313.27 274.492 262.471 222.166 209.664 193.036 126.811 110.671 110.37 89.2882 87.297 87.2699 82.0246 80.7461 75.2075 67.679 61.8333 59.5704 54.0911 53.5523 52.2843 50.612 50.4653 50.3251 49.9242 47.2953 45.4204 43.331 38.4933 34.7505 32.9127 29.1871 31.1848 28.8054 28.288 27.8518 27.6118 27.3953 27.3008 25.743 25.6501 25.4539 25.3515 25.33 25.2183 24.3627 24.2242 24.1363 23.8671 23.1002 22.7443 21.2354 20.8243 20.7152 20.0817 19.8724 19.0253 18.1078
threshold=1.0000000180025095e-35 0.69047650000000005 32.500000000000007 0.35416650000000005 15.500000000000002 -1.9241394999999997 21.618076500000004 7.5000000000000009 64121.500000000007 30.500000000000004 0.46428550000000007 17103.500000000004 20.475048000000005 8.5000000000000018 4.5000000000000009 0.17673100000000003 14.500000000000002 11.928655500000001 0.0064575000000000006 1.0000000180025095e-35 10.7639215 25.500000000000004 1.5000000000000002e-06 0.23904750000000002 12.500000000000002 7.0699185000000009 -16.078496999999995 19.500000000000004 15.632202000000001 6.5000000000000009 0.040833500000000009 28.500000000000004 1.5000000000000002 11.898761000000002 27.500000000000004 39001.500000000007 21.622367500000006 191.50000000000003 16.500000000000004 0.15085650000000003 1.0000000180025095e-35 7.0071570000000003 16.500000000000004 23253.000000000004 14.523748000000003 13.357424000000002 118.94415450000001 31.500000000000004 0.0060990000000000011 63495.500000000007 -17.601951999999994 19.249944000000003 1.0000000180025095e-35 4.5000000000000009 2.5000000000000004 12.814992500000002 12.975081000000001 5.5000000000000009 21.050956000000003 182.16793950000002 57369.500000000007 -17.078637499999996
decision_type=2 2 2 2 2 2 2 2 2 2 2 2 2 2 2 2 2 2 2 2 2 2 2 2 2 2 2 2 2 2 2 2 2 2 2 2 2 2 2 2 2 2 2 2 2 2 2 2 2 2 2 2 2 2 2 2 2 2 2 2 2 2
left_child=1 2 11 5 6 10 9 -2 31 19 18 -1 17 -9 43 59 49 30 26 24 32 25 47 -21 44 34 -4 56 45 51 48 -6 -7 38 52 36 -24 -23 -13 -33 -22 -20 -19 -8 -3 -18 -31 -16 -5 -11 54 -17 -14 -26 58 -25 -15 61 -36 -10 -40 -27
right_child=7 4 3 12 8 20 14 13 15 16 -12 33 21 27 22 29 28 42 41 23 40 37 35 55 53 57 -28 -29 -30 46 -32 39 -34 -35 50 -37 -38 -39 60 -41 -42 -43 -44 -45 -46 -47 -48 -49 -50 -51 -52 -53 -54 -55 -56 -57 -58 -59 -60 -61 -62 -63
leaf_value=-0.020913804227981458 0.024822670308546305 -0.022065023663169314 -0.061932161063537827 -0.043695972183871501 0.026686788230731159 -0.03555808401722399 0.020556051378782997 0.029192401526098151 -0.0067635688948002263 -0.031959391838820503 -0.0026650383277312499 -0.021716747048838903 -0.011117178581028515 0.058135189469039741 0.011922697942379249 -0.0099129457148325328 -0.024445714077205537 -0.0112617284926783 -0.042362824310091113 0.0064089898890972085 -0.013369836499630632 0.046702189523396061 0.0040122948780304266 0.0042591200053383616 0.027774244172277963 -0.012575297802249363 -0.041759517511317602 0.048363874894849244 -0.0045953612599676603 0.0058772988640290978 0.022746939668360451 -0.01533801155063769 -0.0082182784350018617 0.029707200005588005 -0.033646896718759103 0.027156546775272173 0.019369205141846448 0.0052786349345736059 0.0022255279867146676 0.0081927929663034738 0.025847594693143058 -0.02808725313422307 0.027925516909281557 0.044690303930897485 -0.0040175391043421839 8.3261897744143565e-05 0.04305571513658308 -0.01560139911709124 -0.026908995345180205 -2.0948373032982223e-05 -0.012124818280711824 0.064568737190838471 0.017740190675615611 -0.00084104857915690055 -0.0075249595633714826 0.043323972624838725 0.073973041362651412 0.026522142351522077 -0.011475116414608591 0.027032271527618147 0.021085202467277561 0.0096012655473207784
leaf_weight=346.71835113305133 1208.6078515313566 377.0658726519905 788.98085872014053 506.95474266388919 151.08672415441833 198.37649324792437 250.22233538678847 408.78622948611155 85.262403783621266 801.96734590805136 187.01569918252062 77.231052294140682 185.72504940547515 602.81646045483649 111.93574163981248 11.229277498554437 689.59760439640377 193.18805770576 1008.2439920809702 922.67790316441096 64.61173054529354 53.2087779014837 1151.2059763884172 44.554940651170909 131.14044540328905 183.85790847288445 510.72248669131659 1325.3736724993214 1181.8812555817422 61.441350819077343 33.795415235450491 257.48258748347871 366.79709661134984 220.56614363053814 472.72314768831711 238.61738302721642 463.74934656172991 198.66120047913864 300.0541187049821 245.80293562076986 146.98557709041052 504.09499386674725 57.725765824317932 197.86469085235149 411.9902634639293 124.92265028459951 180.72009448986501 330.07839345419779 400.4408992632525 64.511926055187359 841.64388519036584 346.78750237775967 116.65739899047185 152.59225917607546 157.6154650580138 158.69400779204443 316.52602909505367 80.534670507302508 130.27017122437246 88.799291611183435 241.22679216437973 184.33648294233717
leaf_count=17469 11858 20219 72796 35422 1831 14765 2967 3185 3032 50494 6575 2035 6235 2116 2707 206 38507 6822 70422 21736 2659 524 26268 996 3101 6953 39608 7165 35887 937 812 11079 8150 3937 22097 2991 6570 3864 5709 4812 2381 26790 912 1591 12230 3123 1361 11906 19936 1885 26713 1719 3033 4565 4536 1561 736 1419 4144 1049 3209 3095
internal_value=6.93078e-12 -0.00914218 -0.021429 -0.0252304 0.00251275 -0.0356724 -0.00142729 0.0425917 0.0240393 -0.00817784 -0.0425333 0.00284879 -0.0148476 0.050685 0.0110263 0.0416489 -0.016735 -0.0274491 -0.0451848 0.00296413 -0.00918283 -0.00908141 0.00708592 0.0115269 -0.00602277 -0.0115549 -0.0540053 0.0545991 -0.0111593 0.050689 -0.034168 0.00320393 -0.0178146 0.0126678 -0.015114 0.0108339 0.00842217 0.0140296 0.00659144 -0.00384565 0.0138725 -0.0376045 -0.00224623 0.0312132 -0.0126419 -0.0206837 0.0336228 -0.00863119 -0.0362877 -0.0295815 -0.0179693 0.0622326 1.58275e-05 0.0123849 -0.0244365 0.0347604 0.0635881 0.00355169 -0.0288569 0.0104777 0.0106305 -0.0014726
internal_weight=21855 17992.8 8758.96 7573.17 9233.88 3775.83 7805.27 3862.11 1428.61 5061.6 2999.06 1185.8 3797.34 2653.5 2743.67 774.24 2862.88 1192.1 2812.04 2198.72 776.771 2605.23 2295.59 1125.93 1072.79 2353.36 1299.7 2244.72 1996.4 600.178 941.191 654.372 565.174 839.078 1904.64 1853.57 1614.96 251.87 618.512 503.286 211.597 1512.34 250.914 448.087 789.056 814.52 242.161 442.014 907.396 866.479 1602.25 358.017 302.382 283.733 760.609 203.249 919.342 448.729 602.993 174.062 541.281 368.194
internal_count=723412 698352 423022 390663 275330 244146 249304 25060 26026 194304 216191 32359 146517 13202 55000 8304 129896 63904 209616 64408 27955 82613 50442 24293 40115 78225 112404 10017 77517 4223 56170 17722 22915 14890 66758 35829 32838 4388 10953 15891 5040 97212 7734 4558 32449 41630 2298 14613 55358 52379 57490 1925 9268 7666 30777 2557 2852 11467 26241 4081 8918 10048
is_linear=0
shrinkage=0.05


Tree=5
num_leaves=63
num_cat=0
split_feature=133 7 14 7 128 123 107 134 130 126 6 129 18 47 129 133 108 24 64 127 134 128 81 108 117 100 101 134 107 12 126 126 128 109 13 126 13 49 17 12 108 73 73 108 128 126 128 93 127 29 59 106 126 132 129 133 17 79 29 100 100 107
split_gain=2924.91 899.504 291.651 297.189 279.768 239.468 218.129 206.805 193.242 177.492 111.476 101.682 99.5034 79.406 78.9353 74.3498 69.6005 68.0773 64.5569 63.4524 59.4608 54.1367 51.7154 51.0524 47.323 43.1775 42.3102 41.1092 40.0731 39.2541 38.8843 36.2068 35.6497 32.2733 28.5683 28.0139 27.5984 27.5878 27.5826 27.1524 26.9264 26.2162 25.2513 24.967 24.9078 24.7566 24.1226 23.76 22.0093 21.9948 21.7331 20.3615 20.2554 19.8563 19.4045 18.8688 18.832 18.7704 18.6017 27.4598 18.4548 18.0924
threshold=1.0000000180025095e-35 0.69047650000000005 32.500000000000007 0.35416650000000005 15.500000000000002 -1.9241394999999997 21.470049000000003 8.5000000000000018 64121.500000000007 30.500000000000004 0.46428550000000007 17103.500000000004 20.475048000000005 0.19836050000000002 39665.500000000007 61.500000000000007 11.928655500000001 14.500000000000002 0.0064575000000000006 81.500000000000014 25.500000000000004 2.5000000000000004 7.5385040000000005 10.7639215 -17.063587499999997 0.99973750000000006 0.83688150000000017 255.50000000000003 15.632202000000001 6.5000000000000009 27.500000000000004 27.500000000000004 1.5000000000000002 10.120606 4.5000000000000009 31.500000000000004 4.5000000000000009 0.028964500000000001 17.775486000000004 3.5000000000000004 14.364788000000003 7.0071570000000003 21.622367500000006 13.741809000000002 13.500000000000002 29.500000000000004 3.5000000000000004 0.051835000000000006 1.0000000180025095e-35 5.5000000000000009 0.010696000000000002 13.494742 31.500000000000004 42.500000000000007 63495.500000000007 222.50000000000003 23.223808000000002 19.249944000000003 4.5000000000000009 0.38087650000000006 0.19890800000000003 22.970173500000005
decision_type=2 2 2 2 2 2 2 2 2 2 2 2 2 2 2 2 2 2 2 2 2 2 2 2 2 2 2 2 2 2 2 2 2 2 2 2 2 2 2 2 2 2 2 2 2 2 2 2 2 2 2 2 2 2 2 2 2 2 2 2 2 2
left_child=1 2 11 5 6 10 9 61 31 19 18 -1 16 -10 25 38 26 54 24 21 22 37 30 32 -4 34 -5 -17 51 57 48 -6 -7 39 -8 -27 -21 -3 -9 52 -23 -20 -36 -31 -18 -16 -25 -33 -14 -24 -32 -19 -13 -39 -11 -29 -22 -15 59 -52 -26 -2
right_child=7 4 3 12 8 23 14 15 13 17 -12 33 20 29 45 27 44 28 41 36 56 40 49 46 60 35 -28 55 -30 43 50 47 -34 -35 42 -37 -38 53 -40 -41 -42 -43 -44 -45 -46 -47 -48 -49 -50 -51 58 -53 -54 -55 -56 -57 -58 -59 -60 -61 -62 -63
leaf_value=-0.020575521408428145 0.01983417026473008 -0.023109591191097723 -0.060233937970668963 -0.035725535156763494 0.025198599725712856 -0.035375401771674024 0.026082849514519769 0.0276944753286286 0.0096944220861127518 -0.030679166014336168 -0.0036587392754655126 0.014291386414518943 -0.010683022249372653 -0.0097804669263453058 0.042554052445210204 0.045848252473790319 -0.012995260613527099 -0.02330872382393552 -0.04098674423441831 0.031998934813756423 -0.0086422949278231118 0.0072887211305456461 -0.0013471618209144835 -0.002820625751866878 -0.034666339716955839 0.0068824370049992856 0.0077132143008321183 0.040457812416122223 -0.0050364188039350652 0.0077703596416937139 -0.035817053008710076 -0.015025926979801589 -0.0083747965840345329 0.02631070879324068 0.0032430401638289109 -0.019915294314678558 0.0088007546911066572 -0.00013274797140363625 0.046612522389435751 -0.034248062021626433 0.039144967592347299 -0.026727772048591631 0.016844673493711732 0.04319533072962084 0.021883356179511818 0.018546176001991068 0.031535259046128687 0.006903992896256806 0.015368998196130449 0.026192937716587462 -0.0086346753937094258 -0.00076578952798291001 -0.0082763580357775209 -0.017877924975817139 -0.0015840070190380248 0.063800460928526551 0.021970139001355957 0.060289132390690496 -0.00086453241441643422 -0.024287358903874304 -0.055343178050871272 0.033986047467955617
leaf_weight=327.9881869998062 913.45232649147511 223.66403187823016 704.94619521475397 827.7264188202098 136.73434261488728 181.34910563658923 226.8691827035509 451.54358948115259 171.27494536130689 742.89318969973829 189.3025976237841 384.23182900436223 182.15301845374051 9.8190870909020287 198.5900022694841 780.19692967273295 174.97248121991288 652.50350239535328 952.74769387720153 210.12599756126292 67.676123490557075 321.7035572277382 341.17872385727242 119.96752627496608 382.95087940455414 168.35848155734129 60.129290474462323 96.535670071840286 1120.3742993110791 72.188875596271828 154.8640222332906 242.86020171572454 375.13118487515021 274.97017019917257 1182.544530950021 231.80119800649118 328.86489072442055 792.05421311559621 336.07874655351043 40.111448413226753 83.562926116399467 487.19027994095813 479.62155192787759 159.92739219986834 72.352878968464211 233.79702436062507 88.995141491293907 251.3372295931913 146.09122720384039 92.061067352537066 453.82779963524081 118.33400063239969 134.13790473644622 196.81709849648178 62.096128187607974 838.89977193064988 194.98646805714816 359.0336931347847 175.65672746440396 732.34790050273295 150.25658684992231 300.02139820461161
leaf_count=17469 9534 10097 68481 54220 1570 14765 2586 3813 4128 50208 6575 5672 6237 206 1845 4395 6619 38588 70422 4111 1792 7463 9203 3868 28868 3182 1950 422 35128 1019 7074 11101 8150 4621 28336 9853 7687 26610 1779 1101 928 26790 6973 1232 1115 3595 1172 5051 3059 1333 13845 3042 3496 7188 1884 2343 2596 1719 5281 32193 15055 2774
internal_value=-1.54719e-11 -0.0085788 -0.0202666 -0.0239651 0.00244836 -0.0341072 -0.00135057 0.0402729 0.0229556 -0.00770466 -0.0407398 0.00300784 -0.0139422 0.0397274 0.00997974 0.0484846 -0.0262493 -0.016257 -0.0433609 0.00298653 -0.00844366 -0.00196361 -0.0110408 -0.0092611 -0.0517326 0.00627899 -0.0327837 0.0543231 -0.0110735 0.0482868 -0.0146914 0.00242743 -0.0171739 0.0122886 0.00943948 -0.00864073 0.0178446 -0.00725143 0.0357668 0.00538477 0.0138572 -0.0361623 0.00716782 0.0321781 -0.00279183 0.0295727 0.0118112 -0.00387288 0.000911916 0.00450496 -0.0180683 -0.0198481 0.00845156 -0.00366461 -0.0284348 0.0613915 0.0140827 0.0584238 -0.0160499 -0.0182987 -0.040493 0.0233331
internal_weight=21164.8 17448.1 8470.3 7308.86 8977.75 3632.84 7574.58 3716.73 1403.18 4852.99 2867.39 1161.44 3676.02 772.244 2721.58 2503.25 1135.18 2696.2 2678.09 2156.79 2540.84 1617.8 2278.18 765.443 1238.15 2289.19 887.856 1715.63 1891.21 600.969 1844.94 630.932 556.48 833.451 1889.04 400.16 538.991 1212.54 787.622 558.481 405.266 1439.94 1662.17 232.116 247.325 432.387 208.963 494.197 328.244 433.24 1516.7 770.838 518.37 988.871 804.989 935.435 262.663 368.853 1361.83 1186.18 533.207 1213.47
internal_count=723412 698352 423022 390663 275330 244146 249304 25060 26026 192934 216191 32359 146517 8304 56370 12752 63904 128850 209616 64084 82613 52286 78225 27955 112404 50930 56170 7160 76758 4176 67689 17722 22915 14890 37895 13035 11798 43895 5592 10269 8391 97212 35309 2251 7734 5440 5040 16152 9296 10536 58393 41630 9168 33798 52092 2765 4388 1925 51319 46038 43923 12308
is_linear=0
shrinkage=0.05


Tree=6
num_leaves=63
num_cat=0
split_feature=133 7 14 7 128 123 134 107 48 126 132 6 129 18 133 13 108 127 134 64 24 108 81 118 51 134 44 110 126 45 70 107 13 17 132 109 132 80 132 13 13 59 128 73 128 128 128 131 127 129 29 122 29 127 132 24 10 129 48 125 100 40
split_gain=2563.98 791.096 268.309 258.211 239.179 215.319 190.944 181.504 166.346 144.636 106.641 96.1446 92.9207 88.438 80.909 68.7512 63.0063 62.7822 55.0699 54.9859 50.5009 46.341 45.5069 43.9132 41.2182 39.1619 39.0775 33.1646 32.6767 32.5212 31.8235 29.92 29.5063 29.3195 29.1697 28.0849 26.1466 25.4986 25.302 25.196 24.2604 24.0757 23.2524 23.1566 22.5268 22.0254 21.1406 20.7212 20.6843 20.5733 20.1544 19.1433 24.1983 18.7887 18.5554 18.4536 17.5532 17.2068 16.9589 18.0566 16.6334 16.2799
threshold=1.0000000180025095e-35 0.69047650000000005 32.500000000000007 0.35416650000000005 8.5000000000000018 -1.9241394999999997 5.5000000000000009 21.470049000000003 0.16163250000000004 30.500000000000004 1.5000000000000002 0.46428550000000007 17508.500000000004 20.475048000000005 47.500000000000007 4.5000000000000009 11.928655500000001 89.500000000000014 25.500000000000004 0.0064575000000000006 14.500000000000002 10.7639215 7.5385040000000005 -17.895999999999997 0.040833500000000009 255.50000000000003 1.2576530000000001 -14.409382999999998 27.500000000000004 0.029281000000000005 173.59514000000004 15.632202000000001 4.5000000000000009 17.001551500000005 2.5000000000000004 10.689047500000003 10.500000000000002 82.171600000000026 135.50000000000003 4.5000000000000009 4.5000000000000009 0.010696000000000002 1.0000000180025095e-35 7.0071570000000003 13.500000000000002 1.5000000000000002 1.0000000180025095e-35 16.500000000000004 333.50000000000006 30645.000000000004 5.5000000000000009 -14.814511499999998 2.5000000000000004 1.0000000180025095e-35 11.500000000000002 15.500000000000002 191.50000000000003 62636.500000000007 0.14550250000000003 1.5000000000000002 0.19890800000000003 1.0200000000000002
decision_type=2 2 2 2 2 2 2 2 2 2 2 2 2 2 2 2 2 2 2 2 2 2 2 2 2 2 2 2 2 2 2 2 2 2 2 2 2 2 2 2 2 2 2 2 2 2 2 2 2 2 2 2 2 2 2 2 2 2 2 2 2 2
left_child=1 2 12 5 7 11 -2 9 30 17 37 19 -1 16 33 36 24 29 22 23 -11 27 28 -4 -5 -16 49 -7 48 -3 40 -22 -12 -8 -32 47 -9 -10 58 -19 -6 -30 -31 -21 -18 -29 -23 -14 -15 55 -24 52 -43 -38 -27 -17 -20 -37 59 -28 -25 -42
right_child=6 4 3 13 8 21 14 15 10 20 32 -13 35 18 25 26 44 39 56 43 31 46 50 60 -26 54 38 45 41 42 34 -33 -34 -35 -36 57 53 -39 -40 -41 61 51 -44 -45 -46 -47 -48 -49 -50 -51 -52 -53 -54 -55 -56 -57 -58 -59 -60 -61 -62 -63
leaf_value=-0.019977617961973022 0.020043040339734388 -0.01694428588439793 -0.05787214617575015 -0.034117771883224034 0.027937435751539726 -0.072217343814869536 0.02285214962053439 0.037570048413838548 0.028248513787186846 -0.02832776100456097 0.057411068573238057 -0.0044303964864817781 -0.022981181323254059 -0.0054325080924203691 0.043733894915570906 -0.021613627415845982 -0.013089002297687075 0.029543869133542396 0.03567798732779922 -0.039413981070050084 -0.020622904441847494 -0.013902300920807643 -0.0021369669495046981 -0.033006035045552433 0.019924470856637708 0.062075227199533678 0.044290669287958169 -0.030162169602636797 -0.038128332060406445 -0.0059731906196785079 0.032082862822110848 -0.006610294454875671 0.014645402038720379 0.041926008733040442 0.0005511061919550598 0.017494909778269705 0.0039666544174217144 0.056901926776882605 -0.012680204788408873 0.0067670322967280485 -0.010784368707001652 -0.027977516366184535 0.0086966717575723586 -0.025766329191607196 0.019785176233612298 -0.0074797758658388617 0.021214244040169489 0.0086909704255270486 0.029050364762381327 0.012439369261467249 0.023499693178057442 -0.0095597771965820547 -0.0072416582405622869 0.039882667894480917 0.044186815861330365 -0.0017708127754261704 0.0059296603684069202 0.045619540869431173 0.017529476612686064 0.004144768403778162 -0.053005389613313983 0.0045964922357021737
leaf_weight=313.06594018184114 1035.6392587157898 354.94659677252639 669.71997885184828 807.83429445809452 61.848905866732821 25.533345794887282 406.59427759167738 241.44971876218915 101.42249448224902 697.35204247036017 43.438624008558691 187.35335247032344 57.81038570124656 264.092633037013 861.28638584632427 214.88824580598157 167.98615352180786 218.38535705744289 66.121358294971287 907.23264853708679 632.92733520513866 60.245087509043515 336.82592346682213 377.39899612171575 36.894116771640256 739.68752068094909 29.288984799524769 149.03545359137934 128.77050130337011 615.19958364230115 155.18753792438656 956.86199164553545 564.22027193848044 399.36828269436955 139.07809602492489 212.83504486479796 145.86126755876467 331.16139679169282 120.08292888477445 273.45506439637393 434.6195040474413 454.06952245545108 481.56009616190568 472.78548255306669 75.546133331721649 379.68152669584379 148.50204728217795 483.95826768293045 52.061566774616949 119.34679907700047 99.253719846252352 673.27245785912964 203.86353863333352 48.527925833826885 180.30249650776386 257.66105061932467 198.30669155577198 73.048738001845777 589.05409476649947 640.73558712610975 143.49578025587834 284.75919626373798
leaf_count=17570 10889 15338 68193 55358 974 2497 3735 1839 1176 47932 360 6575 1899 8332 5274 10129 6619 3809 524 70422 36385 2659 9203 29032 812 2075 406 12708 7074 24994 1920 31142 10668 2325 4350 3688 2232 1669 2476 6580 18121 22437 10387 26790 1115 7710 2381 8480 964 2394 1333 21891 6991 530 762 7009 3864 722 9986 14287 15179 8237
internal_value=-2.96329e-11 -0.00814748 -0.01928 -0.022903 0.00231515 -0.032507 0.0381861 -0.00235113 0.0169544 -0.00858749 0.0312099 -0.0390104 0.00322532 -0.0134173 0.0454485 0.00861074 -0.0252977 0.00144137 -0.00819694 -0.0415307 -0.0171097 -0.00899912 -0.0107747 -0.0494036 -0.0317574 0.0513961 0.00463704 -0.0165613 -0.014328 -0.00378937 0.00316618 -0.012189 0.0177025 0.0323036 0.0171801 0.012002 0.0265816 0.0501839 0.00924914 0.0168803 -0.00211245 -0.017484 0.000467984 -0.0347384 -0.00289111 -0.0138735 0.0110795 0.00531134 0.000245836 -0.00610949 0.00369805 -0.015487 -0.0215524 0.0129328 0.0585694 -0.0107942 0.0133684 0.0246813 0.0113406 0.00589968 -0.0385154 -0.004696
internal_weight=20602.8 16979.9 8226.6 7085.88 8753.32 3520.98 3622.88 6637.58 2115.74 4230.69 1040.24 2757.99 1140.72 3564.9 2587.24 2406.9 1088.26 1943.55 2476.64 2570.63 2287.14 762.997 2212.21 1190.61 844.728 1781.28 1971.06 554.25 1776.13 1451.71 1075.49 1589.79 607.659 805.963 294.266 827.652 435.839 432.584 1379.16 491.84 781.228 1459.98 1096.76 1380.02 243.532 528.717 208.747 541.769 316.154 591.896 436.08 1331.21 657.933 194.389 919.99 472.549 264.428 285.884 1259.08 670.025 520.895 719.379
internal_count=723412 698352 423022 390663 275330 244146 25060 227855 47475 176567 13873 216191 32359 146517 14171 51288 63904 61108 82613 209616 115459 27955 78225 112404 56170 8111 46687 22915 67689 50719 33602 67527 11028 6060 6270 14789 4601 2845 27155 10389 27332 58393 35381 97212 7734 20418 5040 10379 9296 19532 10536 51319 29428 2762 2837 17138 4388 4410 24679 14693 44211 26358
is_linear=0
shrinkage=0.05


Tree=7
num_leaves=63
num_cat=0
split_feature=133 7 14 7 128 123 107 134 126 130 6 129 18 24 126 47 127 128 108 129 64 133 100 108 117 51 135 48 123 109 12 107 126 107 108 129 49 126 13 73 29 73 135 120 129 64 109 128 18 84 128 129 107 73 134 17 106 125 100 129 127 71
split_gain=2241.07 720.19 236.03 234.158 202.228 186.313 161.533 146.047 141.968 125.62 87.3128 82.704 76.8664 67.6304 67.6152 55.8315 54.6375 55.2356 53.0259 51.6877 47.7607 43.5579 42.9491 42.5361 41.6362 40.9996 33.097 32.4869 32.2305 30.6658 30.3415 30.1971 28.4717 28.0367 27.3944 27.3672 25.5708 25.0817 24.3256 23.5597 23.451 22.4865 22.1387 21.8621 20.6345 20.238 20.1693 19.8505 19.3776 19.3195 18.9169 18.3983 18.2886 17.6981 17.4607 17.171 16.5765 16.4698 16.3536 16.3406 16.3129 15.7329
threshold=1.5000000000000002 0.69047650000000005 32.500000000000007 0.35416650000000005 19.500000000000004 -1.9241394999999997 21.924816000000003 30.500000000000004 30.500000000000004 64981.000000000007 0.46428550000000007 17103.500000000004 20.475048000000005 15.500000000000002 29.500000000000004 0.19836050000000002 81.500000000000014 1.5000000000000002 11.928655500000001 25742.500000000004 0.0066085000000000007 80.500000000000014 0.99943850000000012 10.7639215 -17.223127499999993 0.040833500000000009 11.403571428571452 0.23904750000000002 -17.240194999999996 3.3493885000000003 6.5000000000000009 13.525033500000001 22.500000000000004 14.833003500000002 18.613225000000003 22755.000000000004 0.028964500000000001 20.500000000000004 4.5000000000000009 22.449240500000005 3.5000000000000004 7.0071570000000003 5.6033333333333362 -8.3094164999999993 10876.000000000002 0.011888500000000001 19.583436500000001 11.500000000000002 11.588325500000002 60.233221500000006 3.5000000000000004 58794.500000000007 15.803053000000002 7.4945100000000009 275.50000000000006 12.628776500000003 13.357424000000002 1.5000000000000002 0.16052350000000001 63963.500000000007 65.500000000000014 14.231391500000003
decision_type=2 2 2 2 2 2 2 2 2 2 2 2 2 2 2 2 2 2 2 2 2 2 2 2 2 2 2 2 2 2 2 2 2 2 2 2 2 2 2 2 2 2 2 2 2 2 2 2 2 2 2 2 2 2 2 2 2 2 2 2 2 2
left_child=1 2 11 5 6 10 8 26 16 37 20 -1 18 59 35 -11 17 36 25 28 24 48 39 29 -4 -5 -2 -19 31 43 -17 -14 46 56 51 -8 -3 -6 -18 44 -33 -22 -30 -7 -16 -21 -23 -20 -9 -32 -25 61 -38 -40 -47 -37 -15 -52 -26 -10 -24 -13
right_child=7 4 3 12 9 23 14 21 13 15 -12 34 19 33 22 30 38 27 47 45 41 32 60 50 58 -27 -28 -29 42 -31 49 40 -34 -35 -36 55 52 -39 53 -41 -42 -43 -44 -45 -46 54 -48 -49 -50 -51 57 -53 -54 -55 -56 -57 -58 -59 -60 -61 -62 -63
leaf_value=-0.019128051991569479 0.01816455878630728 -0.025060486608822503 -0.054732146242302229 -0.03185173789720467 0.043095820176083148 -0.069220438394550249 0.01491725415345962 0.005094820843280343 -0.025818377826061407 0.0096941891515560132 -0.0038788453449077145 0.00069978998883062353 -0.031189604030822732 -0.01917065201648277 0.00041483104722057597 0.055499743258303647 0.028257467627753732 0.0058716941742662536 -0.013197834078999724 -0.0097188736982344245 -0.037367875032713382 0.051050150104414826 -0.019063622835073998 -0.002994191799998604 -0.02998927562118785 0.020028874501443902 0.033633758123097858 0.035652913086880934 -0.0078528865561138025 -0.047706750927086844 -0.0069640089222171063 -0.017907820180101508 0.043210742342897207 -0.0032668014805864436 0.046743540794888933 -0.0424537702031067 -0.010537186520277124 -0.0005860292663662027 -0.0022464732543470353 0.018291901533460268 0.001861081045801548 -0.02377151059084736 0.015384679604607038 -0.009675487329276462 0.01435742628559949 0.005976418176344072 0.066562460825111983 0.016815757887308783 0.038203914488234215 0.036838430865276182 0.066559863622615928 0.018666803757736224 0.0039856065048747931 0.019924298694947828 0.034895564490049165 0.037659066373740141 0.002562496424695557 0.015981726343132083 -0.049235148837364941 0.003260304951609617 0.0084779420198877482 0.040152724365097446
leaf_weight=301.22843512310646 631.2929829924833 173.30955674895085 663.16771947877714 797.5721611402696 35.707112388685346 15.938133419374934 354.10764036816545 50.204248486086726 830.53153398318682 139.24171784077771 189.08545768354088 446.04182801116258 295.2895416613901 567.93326630676165 820.41101812873967 298.37426282512024 264.07887042942457 470.14123241021298 160.7253776184516 191.8110924565699 874.97737953939941 447.73588135838509 218.6869215152692 117.82399992155842 362.62580097815953 39.990538535639644 764.52388232946396 113.72274114773609 629.9855278392788 67.035494809621014 30.015373641625047 525.01633417140692 496.3119491301477 1320.9463969891658 51.580751834437251 6.8533572838641694 484.73369787551928 412.43208941444755 189.43772386852652 452.68022981984541 210.02731923921965 466.09113301266916 122.41341618867591 469.6181971039623 392.23981779091991 447.00558405043557 393.8892396055162 83.821041110670194 369.02958167158067 156.0449483548291 20.623505977913737 306.19846577080898 392.16037349542603 171.5048741356004 59.095781405689195 278.14327573333867 103.76909296493977 73.307678165845573 158.67500130180269 51.29629030963406 71.29102427221369 26.786672440124676
leaf_count=17504 6934 9409 68944 55618 342 1477 6188 561 56492 3356 6616 9608 15801 33568 20229 1586 4205 10891 6519 5309 69547 1592 9277 3904 27844 820 6327 1384 19574 4965 528 22194 2683 42748 395 111 21724 12431 5031 6402 5309 26602 2718 16509 7216 11408 940 1272 2306 1318 138 4554 10642 3214 607 2694 2818 1048 17157 1808 2108 388
internal_value=-2.293e-11 -0.00719106 -0.0178777 -0.0212841 0.00273505 -0.0305109 -8.77589e-05 0.0387113 -0.00522675 0.023088 -0.0366508 0.00331549 -0.0122743 -0.012598 0.0100808 0.037598 0.0041525 -0.000656571 -0.0233939 -0.00742364 -0.0391044 0.0483023 0.00546599 -0.00870492 -0.0464207 -0.0293746 0.0266374 0.0116724 -0.0119395 -0.0160065 0.0456184 -0.0176846 0.0527089 -0.00749606 0.0114549 0.0241995 -0.00751088 0.00289448 0.0167254 0.00855822 -0.0122592 -0.0326424 -0.00407219 -0.01163 0.00492465 0.00411153 0.0583101 -0.00291034 0.034239 0.0297722 0.0103492 0.00911835 -0.00404237 0.00828815 0.00935321 0.0357326 -0.0158132 0.0270866 -0.0358474 -0.0241269 -0.0122925 0.00293488
internal_weight=20126.3 16973.4 8173.56 7041.72 8799.79 3478.97 7727.98 3152.99 5133.57 1071.82 2714.62 1131.84 3562.75 2874.48 2594.41 623.676 2259.09 1634.07 1082.11 2480.64 2525.54 1757.17 1955.31 764.347 1184.47 837.563 1395.82 583.864 1782.73 552.592 484.435 1030.33 1337.94 1992.65 830.608 639.104 1050.2 448.139 625.021 1665.33 735.044 1341.07 752.399 485.556 1212.65 697.912 841.625 244.546 419.234 186.06 211.755 779.027 876.894 360.943 506.101 284.997 671.702 93.9312 521.301 881.828 289.978 472.829
internal_count=723412 702069 424349 391900 277720 244751 258159 21343 203934 19561 216710 32449 147149 137434 54225 6788 66500 54050 64229 82920 210094 8082 45232 28041 113945 56438 13261 12275 65596 22951 3432 43304 5215 79134 14945 8993 41775 12773 12450 33847 27503 96149 22292 17986 27445 17324 2532 7791 2867 1846 5090 14550 32366 8245 12015 2805 36386 1186 45001 58300 11385 9996
is_linear=0
shrinkage=0.05


Tree=8
num_leaves=63
num_cat=0
split_feature=133 64 128 126 107 122 134 130 71 127 14 107 107 134 73 108 107 104 47 40 13 29 122 29 100 102 126 134 133 107 53 73 128 83 133 14 64 17 129 125 122 129 109 126 67 48 129 128 13 29 12 12 132 131 106 107 107 128 129 100 106 48
split_gain=2021.72 650.253 241.539 251.398 202.08 189.115 153.297 132.938 91.4937 84.5106 78.7838 75.4885 73.7363 58.3895 57.2677 57.2021 43.575 61.0426 41.9918 40.7417 37.1829 36.7192 35.6235 34.5631 33.0072 35.0242 31.2978 30.28 29.8799 29.7835 33.9809 27.3223 27.0123 26.8873 26.7125 26.4302 25.1446 24.7951 21.9686 21.2203 21.217 20.4832 20.2489 22.6282 19.8418 22.1919 18.8941 18.7188 20.3677 18.3583 17.8191 17.7839 17.3539 17.2437 16.9252 16.9095 16.6662 16.6554 16.3066 16.187 16.711 16.0363
threshold=1.0000000180025095e-35 0.012041500000000002 19.500000000000004 28.500000000000004 18.198234000000003 -15.384943499999997 6.5000000000000009 64981.000000000007 10.392521 34.500000000000007 32.500000000000007 18.990455000000001 9.1969075000000018 538.50000000000011 9.8187245000000019 16.761759000000005 22.783501500000003 0.40625400000000006 0.19836050000000002 1.0000000180025095e-35 4.5000000000000009 7.5000000000000009 -8.439925999999998 3.5000000000000004 0.27573450000000005 0.7529840000000001 23.500000000000004 7.5000000000000009 1205.5000000000002 13.525033500000001 0.10172400000000002 12.529036500000002 4.5000000000000009 6.0424420000000003 8.5000000000000018 3087.5000000000005 0.0037595000000000003 21.186373000000007 56310.500000000007 1.5000000000000002 -2.5027889999999995 42368.500000000007 20.912226500000003 27.500000000000004 0.0012295000000000003 0.15587050000000005 64545.500000000007 1.0000000180025095e-35 3.5000000000000004 2.5000000000000004 3.5000000000000004 6.5000000000000009 68.500000000000014 21.500000000000004 16.459494000000003 13.233032500000002 10.506671500000001 5.5000000000000009 54188.000000000007 0.35010800000000003 17.791772000000005 0.28174600000000011
decision_type=2 2 2 2 2 2 2 2 2 2 2 2 2 2 2 2 2 2 2 2 2 2 2 2 2 2 2 2 2 2 2 2 2 2 2 2 2 2 2 2 2 2 2 2 2 2 2 2 2 2 2 2 2 2 2 2 2 2 2 2 2 2
left_child=1 5 3 9 8 10 -2 26 22 11 50 14 36 34 24 16 17 35 54 -6 -11 -20 33 52 -3 -26 -4 47 55 30 -19 39 46 56 -8 38 -12 -25 40 -22 -7 -39 -36 -44 45 -24 -16 48 -13 -14 58 -23 -21 -40 -9 -15 -5 -27 -1 -10 -61 -53
right_child=6 2 7 4 19 15 13 18 59 20 12 27 49 28 32 -17 -18 29 21 23 31 51 44 37 25 57 -28 -29 -30 -31 -32 -33 -34 -35 42 -37 -38 41 53 -41 -42 -43 43 -45 -46 -47 -48 -49 -50 -51 -52 61 -54 -55 -56 -57 -58 -59 -60 60 -62 -63
leaf_value=-0.0094433661970484209 0.018888102038128993 0.013267589278274219 0.032090275491559669 -0.038857303973447457 -0.013776649441927108 -0.02163604711890596 0.023665433453152071 0.0080859057389379985 0.016397737977410627 0.03154711758981512 -0.05687488763644602 0.029231971796946463 -0.029407866752085537 0.03083436255761203 0.0036123328730866783 0.013188591233419273 0.0072096683168696623 -0.039436861714008821 0.0061926707452891845 -0.0031164034009517824 0.04845340201376587 0.053615031012214868 -0.021099727374885871 0.0020842239244107034 -0.026170589879320229 -0.0080853107227731088 -0.0039047674460849975 0.038155810033967202 0.06103863820475787 -0.016034861232998614 -0.012341006421151159 0.039019022608686449 0.041934091679403693 -0.018781281299411548 0.032890748052017298 -0.054434203316675069 -0.040991378312113844 0.011231999448502471 -0.010590002545211367 0.0036116077997439657 -0.0083554716832946983 0.03985393638347063 0.054148661155180723 0.036276028967697015 -0.0053960900674037728 -0.0074416108949659906 0.050990285900829227 0.023883365881902308 -0.0012393571786206807 -0.005808425190670677 -0.059466658583635992 0.020819295674232088 -0.026891937322993855 0.011503950915340781 0.04928265756143508 0.055453955980831526 -0.023249912161084737 0.01226062872238967 0.027458714974298321 -0.0081272693249674188 0.010595587364036213 0.054878198875724565
leaf_weight=81.360857116756961 1036.1018573103938 172.16866221197415 69.524902218254283 403.57276848494075 391.26541253563482 610.75259538274258 322.42038678564131 166.85773922235239 125.45335393131245 423.78699165571015 447.9344641387579 68.121431160019711 356.33862164593302 174.39558547735214 223.99512594391126 160.95634569751564 168.41906116413884 579.64529915974708 64.646407456370071 567.16245625750162 28.241575222229585 297.27906389022246 1136.059455427574 1089.663080126862 265.60464485664852 828.76990600675344 459.65223370003514 134.46371566061862 474.4980350881815 337.01169080648106 144.56844441615976 76.38267730968073 77.260001744376495 788.61435267387424 588.47928957641125 37.317183323786594 561.51646959560458 730.13846832187846 203.71972915879451 400.90716109401546 592.48063443321735 68.36099333781749 363.37733547762036 345.46689369529486 431.87761462770868 402.87654475611635 23.225148523924872 199.97733393148519 281.28254701243713 107.19919790816493 12.042998840101061 99.756546527147293 88.760969657450914 155.89248320530169 29.311123597435653 116.2252129688859 296.8710829137126 114.48052991554141 47.363847933709621 461.33624397905078 160.69057743158191 52.881665248423815
leaf_count=3112 11413 3889 1064 30982 18123 35172 2907 4851 2658 7496 47863 991 19533 1017 6898 3939 4629 46426 1644 17460 541 1576 68031 29189 18152 35584 15810 1738 1289 15450 7194 1099 852 42086 4013 2722 46072 15905 8634 11121 21864 873 1551 2409 14776 18126 233 3324 6204 3814 541 1083 2928 2843 437 461 16072 2655 579 18488 4683 343
internal_value=2.7013e-11 -0.00733172 -0.00106824 -0.00354137 -0.00882469 -0.0232488 0.0349461 0.0197981 -0.0158494 0.00782982 -0.0370436 0.00285376 -0.0404588 0.0419226 -0.00277384 -0.0158055 -0.0174546 -0.0190155 0.033925 0.00124404 0.0206237 0.041429 -0.0192765 0.00355413 -0.00721496 -0.0101321 0.000824371 0.0168889 0.0533058 -0.0283139 -0.034028 0.0114665 0.016128 -0.0251133 0.0365455 -0.0128487 -0.0480395 0.00698905 -0.0118558 0.00656257 -0.0150966 0.0136824 0.0397465 0.0454381 -0.0148665 -0.0175242 0.00806326 0.0116838 0.00470148 -0.0239502 -0.0013066 0.046492 -0.00633376 -0.00101224 0.0142414 0.0406802 -0.0322424 -0.00561596 0.00413464 1.38577e-05 -0.00329052 0.032619
internal_weight=19726.8 16305.8 11701.3 10461.4 7142.7 4604.52 3420.96 1239.91 4207.35 3318.67 1613.76 2389.35 1472.99 2384.86 1705.5 2990.76 2829.81 2661.39 710.733 2935.35 929.318 514.564 3459.87 2544.09 1381.02 1208.86 529.177 683.845 765.119 1061.23 724.214 505.531 324.48 1489.06 1619.74 1600.16 1009.45 1888.16 1562.85 429.149 1203.23 798.499 1297.32 708.844 1970.81 1538.94 247.22 549.381 349.404 463.538 140.768 449.917 655.923 359.612 196.169 290.621 700.444 943.25 128.725 747.48 622.027 152.638
internal_count=723412 698352 427965 401157 300380 270387 25060 26808 215902 100777 121514 80520 117282 13647 68263 148873 144934 140305 9934 84478 20257 4646 190073 66355 60280 56391 16874 12257 2767 69070 53620 12761 7983 89140 10880 71235 93935 45967 68513 11662 57036 16778 7973 3960 100933 86157 7131 10519 7195 23347 4232 3002 20388 11477 5288 1478 47054 38239 3691 25829 23171 1426
is_linear=0
shrinkage=0.05


Tree=9
num_leaves=63
num_cat=0
split_feature=133 64 126 106 122 134 107 128 127 107 132 14 63 128 107 100 133 108 13 24 100 129 107 114 134 54 107 108 13 14 128 59 125 81 88 132 124 126 29 122 132 108 109 131 17 134 132 128 107 126 131 16 129 132 72 107 65 129 127 109 7 129
split_gain=1822 615.176 222.34 199.867 177.356 149.424 138.697 124.697 87.5054 77.7176 74.7478 74.4944 73.8477 70.7188 69.8482 58.7791 54.7903 54.3346 51.7157 50.4375 49.7051 41.1795 38.6467 43.0033 36.7275 30.5005 30.2683 29.6429 28.9396 24.68 28.2806 26.1724 23.4543 23.1012 22.3427 20.789 20.5804 20.2519 20.0923 19.8449 19.7973 19.7205 19.5916 19.0611 20.3966 18.6842 17.4343 17.3672 17.0866 16.4232 15.6425 15.492 15.0222 14.9622 14.9415 14.4506 14.3648 14.3058 14.3053 19.4729 13.8072 13.7029
threshold=1.0000000180025095e-35 0.012041500000000002 32.500000000000007 15.733932500000002 -15.384943499999997 44.500000000000007 15.712949000000002 5.5000000000000009 57.500000000000007 18.198234000000003 1.5000000000000002 32.500000000000007 0.11024300000000002 19.500000000000004 9.1969075000000018 0.30980400000000002 211.50000000000003 16.670451500000002 4.5000000000000009 16.500000000000004 0.19890800000000003 56310.500000000007 23.161341500000002 -4.6140774999999996 2.5000000000000004 0.014531500000000001 16.362731500000006 17.682938500000002 4.5000000000000009 32.500000000000007 5.5000000000000009 0.0084045000000000022 1.5000000000000002 14.659822500000002 5.6203740000000009 2.5000000000000004 -28.401227999999996 17.500000000000004 2.5000000000000004 -9.015094999999997 45.500000000000007 18.041957000000004 21.019257000000003 27.500000000000004 17.217610500000003 28.500000000000004 70.500000000000014 1.0000000180025095e-35 10.119347500000002 24.500000000000004 12.500000000000002 16.003147000000002 64545.500000000007 1.5000000000000002 11.862110500000002 26.237518000000005 1.5000000000000002e-06 927.50000000000011 20603.500000000004 19.910266000000004 0.7321430000000001 32589.500000000004
decision_type=2 2 2 2 2 2 2 2 2 2 2 2 2 2 2 2 2 2 2 2 2 2 2 2 2 2 2 2 2 2 2 2 2 2 2 2 2 2 2 2 2 2 2 2 2 2 2 2 2 2 2 2 2 2 2 2 2 2 2 2 2 2
left_child=1 4 7 6 11 24 13 8 9 15 -5 50 26 20 36 52 42 21 58 -8 -4 22 23 29 -2 -17 39 55 40 -6 31 -31 -20 37 48 -15 -13 -14 -16 -9 45 61 56 44 -23 -11 60 54 -22 -18 -1 -26 -3 -39 -27 -21 -7 -57 59 -10 -29 -34
right_child=5 2 3 10 17 16 19 12 18 28 -12 14 33 35 38 25 49 -19 32 27 34 43 -24 -25 51 47 -28 46 -30 30 -32 -33 41 -35 -36 -37 -38 53 -40 -41 -42 -43 -44 -45 -46 -47 -48 -49 -50 -51 -52 -53 -54 -55 -56 57 -58 -59 -60 -61 -62 -63
leaf_value=-0.043695767129255624 0.015131741077562131 0.0080336260713126245 -0.0044553155853108593 0.043543020367184979 -0.010437800343892247 0.0077306561477781576 -0.015132417606306799 -0.016088471548018304 0.014042149766163681 0.01877836943975543 0.0081052597921078967 -0.059367679422152368 0.056300070520220361 0.010351523983748778 -0.029587504759500186 -0.022934277828592035 0.055686404612513396 0.011790762993611087 0.042892377928461539 -0.0043472134084747791 -0.032093280399686758 -0.020633529956851124 0.0045561067702552405 -0.0096807732684877652 0.022133230436905824 -0.019116731281770234 0.024680093339139075 -0.010580490941993374 -0.00019389886492783619 -0.039944377295653102 -0.015811718105504354 -0.023651488436132281 -0.010714182359226061 0.055061346444130292 -0.015738659244689614 -0.012406640720445773 -0.042984406827126925 0.040291274553297667 -0.0049176468798154266 0.0094396390326363828 -0.0019209614733334632 0.036483792753221396 0.041164069271409962 0.010491031693069237 0.0037175389522070496 0.048811126547062801 -0.0053338748717639897 0.0011148155969460945 -0.021550246044053759 0.041718264225123786 0.0051721262749551428 0.034655429024947747 0.040573837868385101 0.017929643273566914 -0.0032541504418503518 -0.0069371518191656441 0.0316645538046628 0.015383177198524453 0.050925238509007403 0.03894962073824651 0.017217675533698663 0.0071586663104822286
leaf_weight=18.968561869347468 738.30056165717542 256.76930967753287 415.69975713291205 188.72084791515954 214.81913754949346 103.95255210436881 608.64761313307099 118.45106761856005 165.74671719258185 344.69189146487042 703.45700070774183 263.91292264324147 62.864277716726065 262.66536621470004 336.27741392760072 434.75519847520627 728.15942431986332 171.53399620065466 40.530642901081592 1512.8633924990427 741.31945890083443 210.59097614884377 147.65844287583604 533.11555358255282 407.19282828620635 349.15781035408145 207.18601184897125 49.530814557569101 355.50809605431277 565.88165247207507 321.80487296311185 436.69587512384169 173.56164929154329 122.60173895978369 678.81150403106585 162.3798277375754 700.41903952747816 112.21127994731069 109.38045816472732 213.07193084037863 96.363966309931129 41.131946150911972 281.55539714358747 151.39587130467407 145.34154519170988 60.943558257538825 142.1571561046876 393.19020203675609 797.94612241367577 295.97123301029205 119.79749110527337 627.81299991253763 41.15209175599739 224.39474811195396 258.25459302880336 111.37337357271463 157.94783942960203 201.97571841487661 69.317697594407946 149.02745274431072 455.14878215407953 280.65543445921503
leaf_count=808 8447 6674 15838 2152 8732 1085 30483 6290 3375 5598 18266 28097 579 6570 19533 26398 2300 4068 741 46663 53801 14107 4165 18637 3913 20526 3696 1763 9910 46855 18445 25669 6249 881 39532 6662 65838 1151 3814 4845 2214 642 1554 3005 5190 564 3445 11927 47381 1672 3424 4974 429 3914 11504 3139 1115 4585 924 2098 8390 8166
internal_value=3.75332e-11 -0.00699187 -0.000932024 -0.00651211 -0.0228026 0.0335935 -0.00972506 0.00765219 0.003113 -0.00159091 0.0156013 -0.0364626 0.0226751 -0.0172676 -0.0399028 -0.00768205 0.0448402 -0.0155045 0.0163599 -0.00223849 -0.0203218 -0.0172213 -0.0201584 -0.0219193 0.0236515 -0.0118769 0.00968797 0.000934866 0.0107211 -0.0261583 -0.0287082 -0.0328476 0.00632353 0.0360761 -0.0232954 0.00165723 -0.0474681 0.0302493 -0.0235326 0.000318607 0.0184509 0.00333138 0.032008 -0.00436921 -0.01069 0.0232906 0.0101328 -0.00707256 -0.0266278 0.0516496 -0.00150785 0.0297289 0.0125284 0.0253841 -0.0123724 -0.00232302 0.0221648 0.00744988 0.0303626 0.0258344 0.0144895 0.000329242
internal_weight=19392.7 16051.8 11604.2 7032.7 4447.59 3340.89 6140.52 4571.54 3510.76 2590.79 892.178 1548.76 1060.78 3058.82 1409.99 1733.28 1567.59 2898.84 919.972 3081.7 2633.78 2727.3 2219.98 2072.32 1773.31 1435.36 538.709 2473.05 857.508 1539.2 1324.38 1002.58 535.88 522.072 2218.08 425.045 964.332 399.47 445.658 331.523 501.999 495.349 543.456 507.328 355.933 405.635 646.837 1000.6 1539.27 1024.13 138.766 1035.01 297.921 336.606 607.412 1826.21 261.9 313.349 384.092 314.774 504.68 454.217
internal_count=723412 698352 427965 288670 270387 25060 268252 139295 117939 95744 20418 121514 21356 169784 117282 77458 7726 148873 22195 98468 156552 144805 122503 118338 17334 70355 14831 67985 18286 99701 90969 72524 15798 6525 140714 13232 93935 5644 23347 11135 8376 15057 3754 22302 19297 6162 13598 43957 101182 3972 4232 8887 7103 5065 32030 54387 2200 7724 6397 5473 10153 14415
is_linear=0
shrinkage=0.05


Tree=10
num_leaves=63
num_cat=0
split_feature=133 64 126 106 122 107 128 134 107 14 132 100 103 107 128 127 108 24 100 129 107 104 133 108 107 13 134 13 125 54 108 107 127 132 88 48 132 126 14 114 29 133 108 124 29 132 13 100 107 69 109 132 107 24 127 134 83 134 39 69 12 128
split_gain=1635.08 589.073 209.65 189.169 153.606 128.734 110.857 108.527 75.4437 74.3971 67.6949 65.9528 65.3334 65.0057 64.1596 55.6064 50.2253 49.7937 44.2313 43.2309 40.2274 49.2201 32.2003 31.053 29.7189 28.2588 26.1333 25.6138 25.3642 24.8944 24.1475 28.3041 22.6141 22.2009 22.1988 21.8595 23.5037 27.5448 21.4341 28.6634 21.3905 21.1912 19.8806 17.7662 17.1971 16.8201 16.5982 16.5535 15.8186 15.5382 15.406 15.3181 15.2528 14.9105 14.8527 18.2515 14.8343 14.6862 14.4077 14.3711 13.9506 13.9044
threshold=2.5000000000000004 0.012041500000000002 32.500000000000007 15.733932500000002 -15.384943499999997 15.712949000000002 5.5000000000000009 44.500000000000007 16.541290000000004 32.500000000000007 1.5000000000000002 0.30980400000000002 0.78926150000000017 9.4041435000000018 15.500000000000002 95.500000000000014 16.761759000000005 16.500000000000004 0.19890800000000003 39665.500000000007 22.067514000000003 0.40625400000000006 234.50000000000003 19.363711500000004 19.329580500000002 4.5000000000000009 2.5000000000000004 4.5000000000000009 1.5000000000000002 0.016811000000000003 10.467764500000003 13.525033500000001 111.50000000000001 2.5000000000000004 5.5579980000000004 0.16163250000000004 1.5000000000000002 17.500000000000004 29.500000000000004 -5.0219439999999986 2.5000000000000004 1.0000000180025095e-35 13.335754500000002 -29.032014999999998 2.5000000000000004 10.500000000000002 4.5000000000000009 0.24322500000000002 10.119347500000002 1.7500000000000002e-05 21.019257000000003 2.5000000000000004 27.625047000000006 47.500000000000007 177.50000000000003 30.500000000000004 10.245942500000002 1970.5000000000002 16.354166500000002 1.0000000180025095e-35 3.5000000000000004 28.500000000000004
decision_type=2 2 2 2 2 2 2 2 2 2 2 2 2 2 2 2 2 2 2 2 2 2 2 2 2 2 2 2 2 2 2 2 2 2 2 2 2 2 2 2 2 2 2 2 2 2 2 2 2 2 2 2 2 2 2 2 2 2 2 2 2 2
left_child=1 4 6 5 9 14 8 26 11 60 53 58 24 41 18 29 20 -7 -4 27 21 32 50 44 -8 56 -2 28 45 -13 31 -23 38 -16 48 -14 -37 -38 -6 49 -15 43 -27 -11 47 -10 -34 -19 -20 -40 -9 -25 54 -5 55 -21 -17 -24 -3 -46 -1 -48
right_child=7 2 3 10 16 17 12 22 19 13 -12 15 35 40 33 25 -18 23 34 52 -22 30 57 51 -26 42 -28 -29 -30 -31 -32 -33 46 -35 -36 36 37 -39 39 -41 -42 -43 -44 -45 59 -47 61 -49 -50 -51 -52 -53 -54 -55 -56 -57 -58 -59 -60 -61 -62 -63
leaf_value=0.0046054242148051983 0.015921291062318398 0.017516130163204947 -0.0044874442960124846 0.02263372939003715 -0.0042509901522198605 -0.014715174556585936 0.0019036447473757768 0.023936537283317693 0.018843827088451229 -0.058006576222791574 0.0080406210064316568 -0.020834545867435855 0.0070291147650958924 -0.028519706206338369 0.0083498911711219152 0.017365008494326262 0.010713253623860138 0.041308637184113761 -0.031353228698632156 0.0078250685874971422 0.0053963523689259593 -0.037464750221469445 0.045522764305173602 0.036465775993095327 0.028347048162052493 -0.0090875994306293811 0.030381295088683875 -0.0014752449370770962 0.032393702524289296 -0.0064866785542644582 -0.012182684161680706 -0.016632331793271844 0.023617400794477064 -0.012464105430106759 -0.014762537646213186 0.050828649538075268 0.059455640449651639 0.021618005845112084 -0.033409487398383689 -0.011002478949097524 -0.003101514776238845 0.009047430368080157 0.027102822652059568 -0.042275559630271048 -0.014131279197708797 -0.0024417439563632496 -0.010253110726407747 -0.014006339067427799 -0.020938668268087466 -0.0076585689196348276 0.042391098033679998 0.0091593329255544639 0.051409855797599907 0.050783616852357064 0.038072370388920668 0.038531136207753114 0.063266111835558983 0.05835649756490692 -0.029097662482310396 0.002041046783931169 -0.057769156122337573 0.022623231122172936
leaf_weight=129.61939216568135 488.42460335907526 409.6259339543758 406.3208397172275 73.995190761517733 289.634178913082 602.7211841623066 391.48982820042875 209.76031097956002 178.54615516890772 241.93623359542107 760.94217284349725 465.45185252733063 69.689831274561584 317.42067472671624 305.25681064091623 203.91866154852323 179.41705273301341 14.105651293881236 697.95949698775075 183.22663647669833 192.79842225136235 536.50801308953669 643.59188020415604 57.84142596158199 145.83175428910181 219.13308208587114 867.3115909374319 463.53536183736287 145.65989666851237 862.58537852065638 214.97604608570691 234.22801895940211 55.11940264410805 220.77256243454758 642.69069748790935 189.67837966186926 58.996927490457892 260.37215925566852 357.14308126887772 439.90452633227687 111.96539967716672 17.595738275907934 45.895169446943328 695.28340280271368 151.11200104909949 193.28141713235527 263.20284723781515 328.68775091459975 763.40081774338614 70.074844231945463 245.38641544990242 458.25541450851597 53.010234273737296 129.13980818912387 108.91481623414438 65.763475530315191 19.264851539162919 341.0402561686933 17.27614066679962 1510.263091580011 9.6303506558760983 36.637268757680431
leaf_count=3716 5675 8555 15688 1131 9433 30730 12087 1672 2950 26846 18769 28529 1660 18896 7973 4249 4011 182 52558 3956 5210 46527 2921 711 2187 8571 7195 13373 1966 38392 10320 12173 1491 9719 38398 1283 410 4047 28020 17094 3742 188 964 67876 5994 4688 11141 11664 46196 3318 1278 9421 406 1038 1412 769 138 958 553 40906 543 945
internal_value=-4.75767e-11 -0.00607028 -0.000283099 -0.00570887 -0.0217131 -0.00893244 0.00785184 0.0353243 0.00361991 -0.034545 0.0148862 -0.00205428 0.0216355 -0.0380495 -0.0162633 -0.00621084 -0.0149009 -0.00180485 -0.0195903 0.0127641 -0.0166092 -0.018308 0.0448841 0.00128266 0.00908052 0.00821848 0.0251719 0.00706119 0.0147076 -0.0115153 -0.0270007 -0.0311337 -0.0126399 -0.000385665 -0.0225069 0.0332921 0.0368876 0.0286077 -0.0160275 -0.0199611 -0.0218917 -0.0453158 -0.00282047 -0.0463364 -0.00153376 0.00777928 -0.00160023 -0.0117302 -0.0259128 -0.0291857 0.0338861 0.0122197 0.0263792 0.0405296 0.0226718 0.0159352 0.0213271 0.0499679 0.0156297 0.000570077 0.000291671 -0.00623597
internal_weight=19063.2 16267.7 11874.6 7123.46 4393.09 6159.39 4751.15 2795.52 3635.09 1523.45 964.077 2243.15 1116.06 1384.2 3036.4 1816.25 2869.64 3122.99 2510.37 1391.94 2690.23 2497.43 1439.78 2520.27 537.322 488.212 1355.74 981.023 517.487 1328.04 985.712 770.736 1511.72 526.029 2104.05 578.737 509.047 319.369 1156.76 867.122 429.386 954.815 265.028 937.22 2004.17 371.828 354.96 342.793 1461.36 427.218 455.147 516.097 410.915 203.135 357.905 248.99 223.184 984.632 426.902 1661.38 139.25 299.84
internal_count=723412 703713 432223 291078 271490 270140 141145 19699 119471 121807 20938 89951 21674 117548 170532 80843 149683 99608 152840 29520 145672 140462 6829 68878 14274 13922 12870 22977 9604 66921 69020 58700 71442 17692 137152 7400 5740 4457 57865 48432 22638 94910 9535 94722 58746 7638 13577 11846 98754 31338 2950 10132 6543 2169 6137 4725 4387 3879 9108 46900 4259 12086
is_linear=0
shrinkage=0.05


Tree=11
num_leaves=63
num_cat=0
split_feature=133 7 63 100 49 128 134 13 107 48 114 132 125 107 129 129 133 107 108 86 49 7 127 58 49 131 129 125 24 29 64 128 135 13 53 124 128 126 70 125 132 107 13 107 60 111 113 126 10 108 113 50 34 127 125 132 17 72 129 107 100 17
split_gain=1500.08 528.444 191.46 147.081 151.31 143.076 132.714 122.604 103.709 100.587 70.1964 68.8806 62.1034 61.1352 55.3832 52.1762 51.8131 46.8389 43.1889 41.8982 36.3909 34.0278 32.1604 30.7688 30.1585 29.6853 28.4555 28.1876 27.6709 27.6104 26.9698 26.8677 23.8133 22.8035 22.7558 21.8763 21.7819 21.4561 20.6861 20.0525 19.5723 18.2551 18.2455 17.7512 16.8834 18.2348 16.3454 15.7159 15.7129 15.4954 15.4876 15.1255 14.9351 13.8702 17.0119 13.8526 13.8078 13.6368 13.1411 13.7311 13.0515 12.9462
threshold=1.0000000180025095e-35 0.69047650000000005 0.074537000000000006 0.32247050000000005 0.024857500000000005 8.5000000000000018 32.500000000000007 4.5000000000000009 21.470049000000003 0.16163250000000004 -30.903213499999996 2.5000000000000004 1.5000000000000002 12.128897000000002 16749.500000000004 31894.500000000004 57.500000000000007 18.990455000000001 14.603199000000002 7.9144855000000005 0.040938000000000009 0.48076900000000006 21.500000000000004 0.12771750000000001 0.04889050000000001 21.500000000000004 59689.500000000007 1.5000000000000002 14.500000000000002 2.5000000000000004 0.0051195000000000017 9.5000000000000018 13.420898149867101 7.5000000000000009 0.12310600000000001 -3.3141594999999993 1.0000000180025095e-35 20.500000000000004 173.59514000000004 1.5000000000000002 2.5000000000000004 13.164139500000001 4.5000000000000009 20.019668000000003 0.0033535000000000006 -1.5648764999999998 -6.5653499999999996 25.500000000000004 10.500000000000002 12.975081000000001 -3.1462404999999998 0.00038950000000000003 10.500000000000002 1.0000000180025095e-35 1.5000000000000002 84.500000000000014 17.321327500000006 10.031049500000002 31267.500000000004 15.884500000000001 0.88361750000000006 11.272245500000002
decision_type=2 2 2 2 2 2 2 2 2 2 2 2 2 2 2 2 2 2 2 2 2 2 2 2 2 2 2 2 2 2 2 2 2 2 2 2 2 2 2 2 2 2 2 2 2 2 2 2 2 2 2 2 2 2 2 2 2 2 2 2 2 2
left_child=1 2 3 10 30 7 32 12 23 38 48 33 17 19 21 31 56 -3 -17 60 25 35 28 24 -9 44 29 -13 -10 51 -5 50 -2 -11 -33 -12 46 49 42 -24 -40 -35 -7 -34 45 -16 -19 -20 -1 -18 -4 -15 -38 -25 -55 -30 -8 -14 59 -26 -6 -27
right_child=6 5 15 4 13 9 16 8 22 11 14 27 57 26 20 18 37 36 47 -21 -22 -23 39 53 58 61 -28 -29 55 -31 -32 34 43 41 -36 -37 52 -39 40 -41 -42 -43 -44 -45 -46 -47 -48 -49 -50 -51 -52 -53 -54 54 -56 -57 -58 -59 -60 -61 -62 -63
leaf_value=-0.012123859286653823 0.014825810857908682 -0.0050599001901358359 -0.016376340277239457 -0.04980251058926289 -0.033579517293402146 0.024330016037896349 0.016668976399837027 -0.021843496166228032 -0.016962521959257897 0.048305529046868113 -0.028665162614684304 0.04776331242712796 0.0093020300493272257 -0.010854783330346993 -0.029505617847401168 0.0019428226455340135 0.046976831549122119 0.014164207054557433 0.044245862105444067 0.005913959779006178 0.016601029153707269 -0.0049536654584070488 0.059624201501440426 -0.012191004491782131 -0.020327922300278082 -0.0084026969125331665 0.013860984611286301 0.0079435167230538055 0.0051804112834250467 -0.0038941547554896131 -0.033754547854337721 -0.0040036162833174396 0.021665655355548659 -0.0036210590264671564 0.036581077827117996 -0.0096502862796046269 0.051271319059059364 0.03926842870136061 0.02802553937481235 0.011657439161930792 0.0012325673031836374 0.033909879695806326 -0.0035219665379798691 0.037524472150497312 -0.00017426660387481654 -0.0078038197735543369 -0.022042035634243423 0.016799330412179944 -0.061248839284880147 0.063160926088718289 0.00054214614659973796 -0.025524918932354309 0.017226326291552522 0.049544355161995721 -0.00058880947596315477 -0.01140408154583486 0.035636506673920681 0.0295475343008684 0.00076051699639199857 -0.0072581193869820128 -0.023428123695989678 0.01147394959142021
leaf_weight=20.466475910739973 793.34334865491837 585.55918308184482 450.34010527329519 543.66606769809732 737.81361985509284 64.413154359674081 209.17912095598876 849.56444893183652 214.2757480032742 282.76262562954798 501.53533852938563 49.767727191094309 104.68533577444032 288.31068337184843 189.59204590378795 327.08550233906135 431.0753007568419 214.69072642200626 108.43494902376551 90.801249658572488 237.44211995671503 415.58325800439343 22.63851983519271 308.28816263738554 325.93178366986103 117.60081561713014 100.09042915923055 415.3540838540066 876.21114419447258 433.21946455491707 504.98137830710039 83.970016315346584 512.91765057016164 40.789903533877805 58.671906552277505 216.58154426282272 64.220261014765128 569.9452658277005 140.34711893694475 580.28774700174108 132.52316547324881 157.5221614590846 674.84789731004275 268.98727942933328 188.29883134015836 197.75794362492161 36.467302438570186 100.4911177639151 79.532402393873781 225.14473123289645 193.34594380273484 449.86261940875556 64.636576651595533 17.435188066447154 574.52615619671997 147.04182820185088 177.25706035830081 404.80346089566592 250.53004213166423 524.09995163825806 554.65613377548289 270.01626162219327
leaf_count=680 9368 25849 23375 60493 56247 974 2115 52461 9863 1832 39689 446 2194 12387 14388 12466 1619 3587 1349 3442 4949 14125 222 13941 20039 3386 2932 9280 19819 15265 42327 2709 4861 748 1174 9165 455 3281 1920 13139 4350 1567 26358 2201 6561 6271 795 2613 9022 549 6675 22976 959 324 22812 3644 1066 6129 11475 20148 41589 6767
internal_value=-1.18617e-11 -0.00639254 -0.0160007 -0.0197187 -0.025994 0.00243029 0.031251 -0.00130915 -0.00526286 0.0142041 -0.0101721 0.0259241 0.011264 -0.0196421 -0.00841484 0.00125645 0.0413341 0.00381156 0.013286 -0.0269166 -0.0009314 -0.0163406 0.00398927 -0.0112368 -0.0147664 -0.00525309 -0.011728 0.0122042 -0.000624147 -0.0139144 -0.0420745 -0.00694367 0.0209289 0.039189 0.0126898 -0.0229303 0.0174815 0.0463655 0.00324763 0.0134585 0.0150132 0.0261903 -0.00109517 0.0271213 -0.0124557 -0.018426 0.00890718 0.0310444 -0.0511946 0.0525295 -0.0112945 -0.0197952 0.0341938 -0.00359102 0.000887775 0.00279721 0.0253693 0.0253877 -0.0093034 -0.0122695 -0.0292231 0.00544349
internal_weight=18772.2 15584.4 7460.15 6137.81 3703.4 8124.22 3187.85 6165.89 4690.83 1958.33 2434.41 946.197 1475.06 2654.75 2334.41 1322.34 1612.6 965.574 536.012 1383.27 1200.71 1133.7 1840.45 2850.38 1950.13 963.266 1271.48 465.122 1237.53 1171.39 1048.65 786.328 1575.25 481.075 142.642 718.117 380.015 1226.17 1012.13 602.926 272.87 198.312 739.261 781.905 575.649 387.35 251.158 208.926 99.9989 656.22 643.686 738.173 128.857 900.25 591.961 1023.25 386.436 509.489 1100.56 850.032 1292.47 387.617
internal_count=723412 698352 423022 372661 257658 275330 25060 227855 187887 47475 115003 13873 39968 154838 105301 50361 8630 31645 16428 101278 42322 62979 46687 141200 104123 37373 53560 9726 33326 50628 102820 33933 16430 4147 3883 48854 5796 5449 33602 13361 6270 2315 27332 7062 27220 20659 4382 3962 9702 2168 30050 35363 1414 37077 23136 23463 3181 8323 51662 40187 97836 10153
is_linear=0
shrinkage=0.05


Tree=12
num_leaves=63
num_cat=0
split_feature=133 64 129 7 122 134 108 24 14 107 76 130 107 133 126 123 108 14 128 49 107 132 107 129 126 128 100 130 13 134 17 128 24 107 132 126 113 29 18 48 29 129 124 29 122 53 65 12 109 132 126 13 48 132 109 107 118 100 105 129 107 107
split_gain=1342.74 493.148 196.361 141.066 140.965 126.145 123.015 81.281 67.1583 64.984 66.647 63.4328 54.5353 48.8349 43.5909 40.0287 39.847 34.254 50.1488 33.1942 32.6338 31.7347 31.575 29.5895 25.7798 25.4678 24.7798 24.6014 24.2035 23.1614 22.9241 21.38 21.1502 21.0819 20.4608 20.3186 20.1538 19.6564 17.9532 17.9358 17.2238 16.7499 16.6179 16.3261 15.9997 15.6021 15.1149 14.6068 14.596 14.3898 14.1077 14.0232 16.9789 13.1684 13.0376 13.0357 12.9863 12.9385 15.7365 12.6453 12.5399 12.3286
threshold=1.0000000180025095e-35 0.012041500000000002 29568.500000000004 0.69047650000000005 -15.384943499999997 32.500000000000007 14.449160500000001 26.500000000000004 32.500000000000007 17.329394000000004 10.791171500000003 64981.000000000007 9.4041435000000018 65.500000000000014 30.500000000000004 -10.808195 16.761759000000005 32.500000000000007 1.5000000000000002 0.010258000000000001 23.897193500000004 2.5000000000000004 12.128897000000002 63495.500000000007 39.500000000000007 1.0000000180025095e-35 0.27573450000000005 51607.000000000007 4.5000000000000009 2.5000000000000004 17.217610500000003 5.5000000000000009 14.500000000000002 11.478988500000002 4.5000000000000009 20.500000000000004 -12.248159999999997 3.5000000000000004 21.160802500000006 0.15192300000000003 2.5000000000000004 25742.500000000004 -29.032014999999998 4.5000000000000009 -9.015094999999997 0.15587050000000005 9.6500000000000015e-05 5.5000000000000009 14.4436175 66.500000000000014 27.500000000000004 4.5000000000000009 0.27429450000000005 2.5000000000000004 28.877422000000006 26.516060500000005 -7.5990664999999993 0.33430600000000005 12.688453500000003 46888.500000000007 22.783501500000003 14.755364500000001
decision_type=2 2 2 2 2 2 2 2 2 2 2 2 2 2 2 2 2 2 2 2 2 2 2 2 2 2 2 2 2 2 2 2 2 2 2 2 2 2 2 2 2 2 2 2 2 2 2 2 2 2 2 2 2 2 2 2 2 2 2 2 2 2
left_child=1 4 3 15 8 29 9 14 59 10 23 20 42 -7 25 22 17 41 19 -19 51 33 46 26 34 36 -4 -12 -11 -2 45 -17 -16 47 -8 48 -5 -28 -21 56 -14 -6 -10 57 -25 61 -3 -13 -15 -22 -32 -9 -53 -33 -31 -30 -29 -24 -59 -1 -34 -20
right_child=5 2 6 7 16 13 24 11 12 28 27 21 40 35 32 31 -18 18 30 38 49 -23 43 44 -26 -27 37 39 55 54 50 53 60 -35 -36 -37 -38 -39 -40 -41 -42 -43 -44 -45 -46 -47 -48 -49 -50 -51 -52 52 -54 -55 -56 -57 -58 58 -60 -61 -62 -63
leaf_value=-0.01353021783561918 0.012947583895178123 -0.016426492135398745 0.0081782901241716829 0.0044067173179955744 -0.01803712821202122 0.024696086834585611 0.048952134872905576 0.0099870621479684306 -0.055820837044813165 0.029183136030766322 -0.0019113661322449538 0.04437444388620914 -0.028102509513088104 0.04042371394789189 -0.019304490368425759 -0.0091521450600065175 0.0090377630908731101 -0.034172452079227568 -0.027328661095519648 -0.026287941811568957 0.014190348899083841 -0.0070716534574223906 0.0080105068386155092 -0.0054771469304887507 0.01326535091562682 0.011004463566410346 -0.017481996456280059 0.045034954825900246 0.0068762539141520073 0.021028414085526942 0.010791548229868964 0.033768780777379145 -0.011277070918536103 0.036396203039079339 0.026620777780758994 0.037887698069751376 -0.015964990671250307 -0.0042542621260709739 -0.0073644161691634319 0.051038860898846655 -0.0047302563151357616 0.0057426824966669747 -0.040067827877835027 -0.00025925794296022389 0.013528046002010055 0.0092500023678701981 -0.030174966981534435 -0.0028887086111747339 0.056468738983405632 -0.0017242898138616542 -0.0082740038740611831 -0.0071127966351258237 0.0081128238579729946 0.0018727972906376579 0.034237108038184833 0.02764407664138159 0.0043628138676540902 0.01926477804319747 -0.019254498993971456 0.017513952715048419 0.0013588399300058253 -0.0034662253219562944
leaf_weight=74.090643280185759 688.16762853320688 303.51994452881627 267.85390173632186 238.49599586322438 105.43020581395831 395.45958452112973 185.73754791659303 199.85609271097928 224.3577622512239 279.3159202709794 59.024074120330624 21.480769042856991 296.56402072997298 213.55497051216662 616.40644603408873 543.49561210954562 173.26373419957235 563.42198772757547 308.10121357894968 242.11546033795457 599.30883112526499 71.812001621583477 52.566033763810992 156.40849703620188 165.22964352578856 405.9314990376588 415.6097956408048 30.65716112148948 402.29855445795693 582.87403943156824 116.8739611778874 48.21954680653289 626.22959961183369 267.39133268943988 229.08231408055872 541.15485240332782 247.29049074859358 866.15569015068468 259.8579979611095 89.613945595920086 107.36204396630637 248.81204702192917 659.59514505689731 214.77068995602895 379.27602321654558 41.296358865685761 585.6284972516587 68.406385371694341 421.4944177698344 186.15537675679661 571.41636672534514 992.42199755983893 224.53074745950289 98.383415622171015 274.93719888292253 93.034195566549897 54.543611268280074 27.615600259741768 665.29855921538547 58.864123075269163 286.02480656979606 65.664611450163648
leaf_count=3289 8447 19858 5854 6556 6382 3294 2098 5362 26846 3825 2240 151 18840 888 41531 24628 3939 50895 25588 16930 11922 1961 1416 8176 4445 8687 24416 692 11345 5741 3129 1024 26753 2589 3828 3203 11099 40692 10599 789 3720 5110 67876 7049 10379 1254 42374 1571 1245 4302 21918 38011 6006 3198 2242 1624 1760 966 31506 943 7282 3129
internal_value=-4.21145e-12 -0.00606439 -0.00065214 -0.00524448 -0.0208733 0.0299211 0.008837 -0.000411911 -0.0336183 0.00487534 0.000687245 0.00567077 -0.037111 0.0398962 -0.00702482 -0.0148578 -0.0141571 -0.01575 -0.0181045 -0.025842 0.00224408 0.023258 -0.0186924 -0.00215113 0.0299671 0.00176071 -0.00565297 0.025999 0.0174137 0.0197804 -0.0106333 -0.00458135 -0.0121497 0.0293542 0.0366197 0.0450067 -0.00596354 -0.00854333 -0.0164917 0.0354227 -0.0218903 -0.00133471 -0.0440661 -0.0124057 0.00797893 -0.0199141 -0.0254818 0.008406 0.0510731 0.0104186 -0.00503661 -0.00228778 -0.00430363 0.0123638 0.0252619 0.0107769 0.0189976 -0.0159051 -0.0177193 0.000214215 -0.00731526 -0.0231364
internal_weight=18499.8 15382.2 11265.1 7591.24 4117.09 3117.64 3673.84 5051.74 1420.83 3093.79 2319.14 2631.36 1287.88 1571.66 2420.38 2539.5 2696.25 2522.99 2168.75 1065.4 2202.27 429.09 1849.4 2085.3 580.05 891.718 1549.62 233.839 774.649 1545.98 1103.35 690.099 1528.66 357.278 414.82 1176.2 485.786 1281.77 501.973 174.815 403.926 354.242 883.953 960.251 535.685 415.062 889.148 89.8872 635.049 785.464 688.29 1416.81 1216.95 146.603 857.811 495.333 85.2008 745.48 692.914 132.955 912.254 373.766
internal_count=723412 698352 427965 305802 270387 25060 122163 173783 121514 111792 94998 71875 117282 8630 101908 132019 148873 144934 133442 78424 65603 6272 103169 89517 10371 26342 70962 5481 16794 16430 55018 28850 75566 4311 5926 5336 17655 65108 27529 3241 22560 11492 94722 40937 18555 29971 62232 1722 2133 16224 25047 49379 44017 4222 7983 12969 2452 33888 32472 4232 34035 28717
is_linear=0
shrinkage=0.05


Tree=13
num_leaves=63
num_cat=0
split_feature=133 64 129 7 122 108 134 128 107 14 107 76 107 132 48 123 134 74 13 44 107 129 129 107 100 126 132 133 13 29 130 100 128 13 18 48 29 128 14 124 29 125 132 48 134 13 29 122 65 13 108 48 47 134 18 129 18 107 131 107 118 126
split_gain=1210.78 461.925 182.14 134.863 125.372 110.938 94.2083 74.8054 64.5479 60.8012 59.5798 63.0165 51.2518 40.25 37.9241 37.4433 35.6567 30.9781 30.1186 34.7314 29.7092 29.128 28.5796 27.7011 28.7597 25.5167 26.1676 24.841 24.7105 22.6154 21.9887 21.7724 20.2143 20.1006 18.5689 18.554 17.9612 17.7748 23.0502 17.252 16.8995 16.8698 16.7753 19.1582 16.5621 16.4115 16.3098 15.8045 15.6665 15.4763 14.6801 13.6337 13.578 13.4526 13.4512 13.3549 15.1173 13.2928 13.1996 12.8412 12.4889 12.4654
threshold=2.5000000000000004 0.012041500000000002 29568.500000000004 0.69047650000000005 -15.384943499999997 14.449160500000001 255.50000000000003 9.5000000000000018 18.198234000000003 32.500000000000007 17.329394000000004 10.791171500000003 9.1969075000000018 2.5000000000000004 0.23303150000000003 -10.808195 5.5000000000000009 160.97550650000002 4.5000000000000009 0.57166650000000019 12.128897000000002 56310.500000000007 63495.500000000007 20.793743000000003 0.40892150000000005 23.500000000000004 2.5000000000000004 222.50000000000003 4.5000000000000009 1.5000000000000002 51607.000000000007 0.27573450000000005 5.5000000000000009 4.5000000000000009 17.168759500000004 0.13484850000000004 2.5000000000000004 2.5000000000000004 1113.5000000000002 -28.401227999999996 3.5000000000000004 1.5000000000000002 66.500000000000014 0.26491250000000005 1.0000000180025095e-35 6.5000000000000009 4.5000000000000009 -8.439925999999998 5.0500000000000008e-05 6.5000000000000009 17.812595500000004 0.15192300000000003 0.19836050000000002 3.5000000000000004 9.8502735000000019 64709.500000000007 13.416597000000001 26.516060500000005 49.500000000000007 13.093498000000002 -7.5264929999999994 28.500000000000004
decision_type=2 2 2 2 2 2 2 2 2 2 2 2 2 2 2 2 2 2 2 2 2 2 2 2 2 2 2 2 2 2 2 2 2 2 2 2 2 2 2 2 2 2 2 2 2 2 2 2 2 2 2 2 2 2 2 2 2 2 2 2 2 2
left_child=1 4 3 15 9 10 16 8 28 -1 11 22 39 17 21 20 50 49 -10 -20 48 23 31 24 37 55 -27 -8 -5 -26 -13 -4 -17 -12 58 -30 53 38 -6 -11 -33 -15 43 -21 -23 -32 -22 -24 -3 -9 -2 -31 -19 -14 -47 56 -7 -35 -18 -51 -49 -36
right_child=6 2 5 7 14 25 27 13 18 12 33 30 36 41 -16 32 34 52 19 42 46 44 47 -25 29 26 -28 -29 35 51 45 40 -34 57 61 -37 -38 -39 -40 -41 -42 -43 -44 -45 -46 54 -48 60 -50 59 -52 -53 -54 -55 -56 -57 -58 -59 -60 -61 -62 -63
